<?xml version="1.0" encoding="UTF-8"?>
<!-- This network was created in GeNIe Academic, which can be used for academic teaching and research purposes only -->
<smile version="1.0" id="AppliancesData_Discretized" numsamples="10000" discsamples="10000">
	<nodes>
		<cpt id="rv2">
			<state id="s1_below_9_98" />
			<state id="s2_9_98_19_91" />
			<state id="s3_19_91_29_94" />
			<state id="s4_29_94_40_19" />
			<state id="s5_40_19_up" />
			<probabilities>0.2 0.2 0.2 0.2 0.2</probabilities>
		</cpt>
		<cpt id="lights">
			<state id="s1_below_10_00" />
			<state id="s2_10_00_up" />
			<parents>rv2</parents>
			<probabilities>0.8857360020268559 0.1142639979731442 0.8783886496072968 0.1216113503927033 0.8867494299467951 0.113250570053205 0.8913098555865214 0.1086901444134786 0.8824423612870536 0.1175576387129466</probabilities>
		</cpt>
		<cpt id="T3">
			<state id="s1_below_20_50" />
			<state id="s2_20_50_21_63" />
			<state id="s3_21_63_22_53" />
			<state id="s4_22_53_23_95" />
			<state id="s5_23_95_up" />
			<probabilities>0.2068406384595896 0.19366607550038 0.2008614137319483 0.1986318723080821 0.2</probabilities>
		</cpt>
		<cpt id="T1">
			<state id="s1_below_20_50" />
			<state id="s2_20_50_21_26" />
			<state id="s3_21_26_22_00" />
			<state id="s4_22_00_22_89" />
			<state id="s5_22_89_up" />
			<parents>T3</parents>
			<probabilities>0.7962772471222141 0.1543472936566251 0.04805290227773697 0.00127357335292677 4.898359049718346e-05 0.1930926216640503 0.4037153322867609 0.2859759288330717 0.1030873888016745 0.0141287284144427 0.02623612512613522 0.318869828456105 0.3784056508577195 0.251765893037336 0.02472250252270434 0.01071428571428571 0.08290816326530613 0.3474489795918368 0.4043367346938776 0.1545918367346939 5.065856129685917e-05 5.065856129685917e-05 0.03956433637284701 0.1862208713272543 0.774113475177305</probabilities>
		</cpt>
		<cpt id="RH_8">
			<state id="s1_below_38_33" />
			<state id="s2_38_33_41_03" />
			<state id="s3_41_03_43_75" />
			<state id="s4_43_75_48_04" />
			<state id="s5_48_04_up" />
			<parents>T1</parents>
			<probabilities>0.143409915356711 0.1542926239419589 0.203869407496977 0.2740024183796856 0.2244256348246675 0.2543859649122807 0.2179691653375864 0.210260499734184 0.1446039340776183 0.1727804359383307 0.2112839563501277 0.223589505456234 0.1943348038077548 0.1922451822614349 0.1785465521244486 0.2085014796879203 0.2531611514662362 0.2119989238633306 0.1894000538068334 0.1369383911756793 0.1869428421604614 0.1554798112218144 0.1780283167278448 0.1934976402726796 0.2860513896171998</probabilities>
		</cpt>
		<cpt id="RH_3">
			<state id="s1_below_36_47" />
			<state id="s2_36_47_37_90" />
			<state id="s3_37_90_39_40" />
			<state id="s4_39_40_42_53" />
			<state id="s5_42_53_up" />
			<parents>RH_8</parents>
			<probabilities>0.6180344478216819 0.2142857142857143 0.1261398176291793 0.04052684903748734 0.001013171225937183 0.2596713021491782 0.3610619469026549 0.277370417193426 0.09709228824273072 0.004804045512010114 0.1140172676485526 0.3148806500761808 0.3202133062468258 0.2166074149314373 0.03428136109700355 0.01216113503927033 0.1393463389916392 0.2277679250063339 0.4243729414745376 0.1963516594882189 0.0002533569799847986 0.0002533569799847986 0.0187484165188751 0.2199138586268052 0.7608310108943502</probabilities>
		</cpt>
		<cpt id="T9">
			<state id="s1_below_17_79" />
			<state id="s2_17_79_18_70" />
			<state id="s3_18_70_19_79" />
			<state id="s4_19_79_20_82" />
			<state id="s5_20_82_up" />
			<parents>T3 RH_3</parents>
			<probabilities>0.1429477020602219 0.6358161648177496 0.2206022187004754 0.0003169572107765452 0.0003169572107765452 0.5062753036437245 0.3919028340080971 0.101417004048583 0.0002024291497975708 0.0002024291497975708 0.7671706263498921 0.2315334773218143 0.0004319654427645789 0.0004319654427645789 0.0004319654427645789 0.9102342786683105 0.08039457459926015 0.008877928483353881 0.0002466091245376078 0.0002466091245376078 0.999329983249581 0.0001675041876046901 0.0001675041876046901 0.0001675041876046901 0.0001675041876046901 0.0722689075630252 0.2895558223289315 0.5476590636254501 0.09027611044417767 0.0002400960384153661 0.224860853432282 0.6293135435992577 0.1450834879406308 0.0003710575139146567 0.0003710575139146567 0.09222065063649219 0.7357850070721357 0.1685997171145686 0.003111739745403111 0.0002828854314002828 0.1535315985130111 0.6702602230483271 0.1711895910780669 0.00483271375464684 0.0001858736059479554 0.5895833333333332 0.1639880952380952 0.2458333333333333 0.0002976190476190476 0.0002976190476190476 0.02087475149105368 0.05666003976143141 0.6958250497017892 0.2196819085487077 0.006958250497017892 0.006153846153846154 0.06051282051282051 0.4441025641025641 0.477948717948718 0.01128205128205128 0.01408450704225352 0.05915492957746479 0.4309859154929578 0.447887323943662 0.04788732394366198 0.1652173913043478 0.3453416149068323 0.3049689440993789 0.1838509316770186 0.0006211180124223603 0.157607555089192 0.6151101783840504 0.2268625393494228 0.0002098635886673662 0.0002098635886673662 0.0001976284584980237 0.06442687747035573 0.2788537549407114 0.5456521739130434 0.1108695652173913 0.00115473441108545 0.03348729792147806 0.2771362586605081 0.523094688221709 0.1651270207852194 0.01260911736178467 0.01842870999030068 0.03103782735208535 0.7293889427740058 0.2085354025218235 0.01136363636363636 0.007102272727272728 0.078125 0.828125 0.07528409090909091 0.1171521035598706 0.3760517799352751 0.486084142394822 0.02006472491909385 0.0006472491909385114 0.0004106776180698152 0.0106776180698152 0.03121149897330595 0.1626283367556468 0.7950718685831623 0.0002857142857142857 0.007428571428571428 0.03885714285714285 0.1017142857142857 0.8517142857142858 0.0002171552660152009 0.0002171552660152009 0.04581976112920739 0.1011943539630836 0.8525515743756787 0.0001939864209505335 0.0001939864209505335 0.01280310378273521 0.1553831231813773 0.8314258001939865 0.04944649446494465 0.0002460024600246003 0.04083640836408364 0.01377613776137761 0.8956949569495696</probabilities>
		</cpt>
		<cpt id="RH_4">
			<state id="s1_below_35_00" />
			<state id="s2_35_00_37_29" />
			<state id="s3_37_29_39_50" />
			<state id="s4_39_50_43_26" />
			<state id="s5_43_26_up" />
			<parents>RH_3</parents>
			<probabilities>0.7262228946041354 0.2151285930408473 0.04367120524457893 0.01492687846696924 5.042864346949069e-05 0.2275454992621741 0.4614363010329562 0.2573044761436301 0.05366453516969995 4.918839153959665e-05 0.03656307129798903 0.2770958474797597 0.4050665970227214 0.2752676939148603 0.006006790284669627 0.004060913705583757 0.0467005076142132 0.2789340101522843 0.4593908629441625 0.2109137055837564 5.08001016002032e-05 0.004368808737617475 0.00970281940563881 0.2019812039624079 0.7838963677927354</probabilities>
		</cpt>
		<cpt id="RH_5">
			<state id="s1_below_44_63" />
			<state id="s2_44_63_47_50" />
			<state id="s3_47_50_50_79" />
			<state id="s4_50_79_55_00" />
			<state id="s5_55_00_up" />
			<parents>RH_3</parents>
			<probabilities>0.4978562421185372 0.2133669609079445 0.09255989911727616 0.0605296343001261 0.135687263556116 0.3107011070110701 0.3271832718327183 0.1813038130381304 0.08806888068880687 0.09274292742927429 0.1441629668320711 0.3175763907025333 0.283363802559415 0.1266649255680334 0.1282319143379473 0.03857868020304569 0.1208121827411168 0.3266497461928934 0.2527918781725889 0.2611675126903553 0.003556910569105691 0.02388211382113821 0.1267784552845529 0.4672256097560976 0.3785569105691057</probabilities>
		</cpt>
		<cpt id="Windspeed">
			<state id="s1_below_2_00" />
			<state id="s2_2_00_3_00" />
			<state id="s3_3_00_4_00" />
			<state id="s4_4_00_6_00" />
			<state id="s5_6_00_up" />
			<probabilities>0.2834557892069927 0.1666075500380035 0.1543450722067393 0.2160121611350393 0.1795794274132252</probabilities>
		</cpt>
		<cpt id="Part_of_day">
			<state id="afternoon" />
			<state id="evening" />
			<state id="morning" />
			<state id="night" />
			<parents>RH_8</parents>
			<probabilities>0.4749240121580547 0.3589159067882473 0.146403242147923 0.01975683890577508 0.2710493046776232 0.2730720606826801 0.2753476611883691 0.1805309734513274 0.175215845606907 0.2214321990858303 0.2813610970035551 0.3219908583037074 0.1532809728908031 0.1998986572080061 0.2695718267038257 0.3772485431973651 0.1763364580694198 0.1963516594882189 0.2769191791233849 0.3503927033189765</probabilities>
		</cpt>
		<cpt id="Press_mm_hg">
			<state id="s1_below_749_63" />
			<state id="s2_749_63_754_00" />
			<state id="s3_754_00_757_45" />
			<state id="s4_757_45_762_25" />
			<state id="s5_762_25_up" />
			<parents>RH_3 RH_4 RH_5 T9 Windspeed Part_of_day</parents>
			<probabilities>0.02857142857142857 0.02857142857142857 0.8857142857142857 0.02857142857142857 0.02857142857142857 0.06666666666666667 0.4 0.4 0.06666666666666667 0.06666666666666667 0.2 0.2 0.2 0.2 0.2 0.2 0.2 0.2 0.2 0.2 0.02857142857142857 0.02857142857142857 0.8857142857142857 0.02857142857142857 0.02857142857142857 0.01176470588235294 0.7176470588235295 0.2470588235294118 0.01176470588235294 0.01176470588235294 0.2 0.2 0.2 0.2 0.2 0.2 0.2 0.2 0.2 0.2 0.03999999999999999 0.03999999999999999 0.8399999999999999 0.03999999999999999 0.03999999999999999 0.2 0.2 0.2 0.2 0.2 0.2 0.2 0.2 0.2 0.2 0.2 0.2 0.2 0.2 0.2 0.2 0.2 0.2 0.2 0.2 0.2 0.2 0.2 0.2 0.2 0.2 0.2 0.2 0.2 0.2 0.2 0.2 0.2 0.2 0.2 0.7999999999999998 0.04999999999999999 0.04999999999999999 0.04999999999999999 0.04999999999999999 0.2 0.2 0.2 0.2 0.2 0.2 0.2 0.2 0.2 0.2 0.2 0.2 0.2 0.2 0.2 0.009523809523809525 0.2 0.1523809523809524 0.5333333333333332 0.1047619047619048 0.004 0.004 0.444 0.024 0.524 0.01176470588235294 0.01176470588235294 0.01176470588235294 0.4235294117647059 0.5411764705882353 0.005263157894736842 0.005263157894736842 0.005263157894736842 0.1894736842105263 0.7947368421052631 0.004166666666666667 0.2333333333333333 0.2333333333333333 0.004166666666666667 0.5249999999999999 0.01333333333333333 0.01333333333333333 0.7466666666666666 0.01333333333333333 0.2133333333333333 0.0125 0.0125 0.0125 0.7625 0.2 0.2 0.2 0.2 0.2 0.2 0.03333333333333333 0.03333333333333333 0.03333333333333333 0.03333333333333333 0.8666666666666667 0.03333333333333333 0.03333333333333333 0.8666666666666665 0.03333333333333333 0.03333333333333333 0.04000000000000001 0.04000000000000001 0.04000000000000001 0.4400000000000001 0.4400000000000001 0.05 0.05 0.8 0.05 0.05 0.06666666666666665 0.7333333333333333 0.06666666666666665 0.06666666666666665 0.06666666666666665 0.01818181818181819 0.9272727272727275 0.01818181818181819 0.01818181818181819 0.01818181818181819 0.0125 0.0125 0.325 0.6375 0.0125 0.2 0.2 0.2 0.2 0.2 0.01428571428571429 0.01428571428571429 0.5142857142857142 0.4428571428571428 0.01428571428571429 0.2 0.2 0.2 0.2 0.2 0.01428571428571429 0.01428571428571429 0.5857142857142856 0.3714285714285714 0.01428571428571429 0.2 0.2 0.2 0.2 0.2 0.6000000000000001 0.1 0.1 0.1 0.1 0.04000000000000001 0.04000000000000001 0.04000000000000001 0.24 0.6400000000000001 0.005555555555555556 0.005555555555555556 0.005555555555555556 0.005555555555555556 0.9777777777777779 0.006451612903225806 0.006451612903225806 0.006451612903225806 0.006451612903225806 0.9741935483870967 0.2166666666666667 0.008333333333333333 0.09166666666666667 0.09166666666666667 0.5916666666666666 0.005128205128205128 0.1076923076923077 0.05641025641025641 0.158974358974359 0.6717948717948717 0.01428571428571429 0.01428571428571429 0.01428571428571429 0.01428571428571429 0.9428571428571427 0.006666666666666667 0.006666666666666667 0.006666666666666667 0.2733333333333333 0.7066666666666667 0.09090909090909091 0.01818181818181818 0.4909090909090909 0.03636363636363636 0.3636363636363636 0.005882352941176471 0.005882352941176471 0.1235294117647059 0.2117647058823529 0.6529411764705882 0.0125 0.0125 0.1375 0.0125 0.825 0.008333333333333333 0.008333333333333333 0.4249999999999999 0.008333333333333333 0.5499999999999999 0.181981981981982 0.1459459459459459 0.06486486486486487 0.001801801801801802 0.6054054054054054 0.04 0.006666666666666667 0.07333333333333333 0.1733333333333333 0.7066666666666667 0.025 0.025 0.9 0.025 0.025 0.008333333333333335 0.008333333333333335 0.9666666666666668 0.008333333333333335 0.008333333333333335 0.1268292682926829 0.2 0.004878048780487806 0.004878048780487806 0.6634146341463415 0.3714285714285714 0.01428571428571429 0.01428571428571429 0.01428571428571429 0.5857142857142856 0.6 0.02857142857142857 0.3142857142857143 0.02857142857142857 0.02857142857142857 0.2 0.2 0.2 0.2 0.2 0.2 0.2 0.2 0.2 0.2 0.01333333333333333 0.01333333333333333 0.01333333333333333 0.2133333333333333 0.7466666666666666 0.01176470588235294 0.01176470588235294 0.07058823529411765 0.01176470588235294 0.8941176470588235 0.009523809523809525 0.009523809523809525 0.3428571428571429 0.6285714285714284 0.009523809523809525 0.03333333333333333 0.03333333333333333 0.03333333333333333 0.2 0.7 0.004761904761904762 0.004761904761904762 0.004761904761904762 0.4571428571428571 0.5285714285714285 0.005882352941176471 0.005882352941176471 0.4470588235294117 0.09411764705882353 0.4470588235294117 0.01176470588235294 0.01176470588235294 0.776470588235294 0.1882352941176471 0.01176470588235294 0.002702702702702703 0.002702702702702703 0.01621621621621622 0.6783783783783784 0.3 0.006666666666666667 0.006666666666666667 0.006666666666666667 0.4733333333333333 0.5066666666666666 0.0125 0.0125 0.325 0.1375 0.5125 0.2 0.2 0.2 0.2 0.2 0.001851851851851852 0.001851851851851852 0.2518518518518518 0.4 0.3444444444444444 0.008 0.008 0.168 0.528 0.288 0.02857142857142857 0.02857142857142857 0.6 0.02857142857142857 0.3142857142857143 0.2 0.2 0.2 0.2 0.2 0.006896551724137931 0.006896551724137931 0.3172413793103448 0.07586206896551724 0.593103448275862 0.02222222222222223 0.02222222222222223 0.02222222222222223 0.9111111111111112 0.02222222222222223 0.2 0.2 0.2 0.2 0.2 0.2 0.2 0.2 0.2 0.2 0.01333333333333334 0.01333333333333334 0.01333333333333334 0.9466666666666668 0.01333333333333334 0.02857142857142857 0.02857142857142857 0.7428571428571429 0.1714285714285714 0.02857142857142857 0.2 0.2 0.2 0.2 0.2 0.005714285714285714 0.005714285714285714 0.2342857142857143 0.7485714285714286 0.005714285714285714 0.03333333333333333 0.03333333333333333 0.03333333333333333 0.8666666666666665 0.03333333333333333 0.01052631578947368 0.01052631578947368 0.01052631578947368 0.9578947368421051 0.01052631578947368 0.2 0.2 0.2 0.2 0.2 0.2 0.2 0.2 0.2 0.2 0.007407407407407408 0.1555555555555556 0.007407407407407408 0.8222222222222222 0.007407407407407408 0.01818181818181818 0.290909090909091 0.01818181818181818 0.6545454545454545 0.01818181818181818 0.03333333333333333 0.03333333333333333 0.03333333333333333 0.6999999999999998 0.2 0.2 0.2 0.2 0.2 0.2 0.008333333333333333 0.1333333333333333 0.008333333333333333 0.8416666666666666 0.008333333333333333 0.01 0.06 0.01 0.91 0.01 0.009090909090909092 0.009090909090909092 0.1 0.8727272727272727 0.009090909090909092 0.2 0.2 0.2 0.2 0.2 0.006896551724137931 0.006896551724137931 0.2137931034482759 0.7655172413793103 0.006896551724137931 0.01538461538461539 0.01538461538461539 0.01538461538461539 0.9384615384615385 0.01538461538461539 0.2 0.2 0.2 0.2 0.2 0.2 0.2 0.2 0.2 0.2 0.2 0.2 0.2 0.2 0.2 0.02857142857142857 0.8857142857142857 0.02857142857142857 0.02857142857142857 0.02857142857142857 0.01818181818181818 0.01818181818181818 0.01818181818181818 0.9272727272727274 0.01818181818181818 0.2 0.2 0.2 0.2 0.2 0.2 0.2 0.2 0.2 0.2 0.2 0.2 0.2 0.2 0.2 0.2 0.2 0.2 0.2 0.2 0.2 0.2 0.2 0.2 0.2 0.2 0.2 0.2 0.2 0.2 0.2 0.2 0.2 0.2 0.2 0.2 0.2 0.2 0.2 0.2 0.2 0.2 0.2 0.2 0.2 0.2 0.2 0.2 0.2 0.2 0.2 0.2 0.2 0.2 0.2 0.2 0.2 0.2 0.2 0.2 0.2 0.2 0.2 0.2 0.2 0.2 0.2 0.2 0.2 0.2 0.2 0.2 0.2 0.2 0.2 0.6000000000000001 0.1 0.1 0.1 0.1 0.2 0.2 0.2 0.2 0.2 0.02222222222222223 0.02222222222222223 0.02222222222222223 0.9111111111111112 0.02222222222222223 0.009523809523809525 0.009523809523809525 0.05714285714285713 0.009523809523809525 0.9142857142857141 0.01818181818181818 0.01818181818181818 0.01818181818181818 0.1090909090909091 0.8363636363636363 0.2 0.2 0.2 0.2 0.2 0.8399999999999999 0.03999999999999999 0.03999999999999999 0.03999999999999999 0.03999999999999999 0.1294117647058824 0.01176470588235294 0.1294117647058824 0.01176470588235294 0.7176470588235293 0.2 0.2 0.2 0.2 0.2 0.2 0.2 0.2 0.2 0.2 0.05 0.05 0.05 0.05 0.8 0.02222222222222222 0.02222222222222222 0.2444444444444445 0.02222222222222222 0.6888888888888889 0.2 0.2 0.2 0.2 0.2 0.2 0.2 0.2 0.2 0.2 0.008695652173913044 0.1826086956521739 0.008695652173913044 0.008695652173913044 0.7913043478260869 0.025 0.025 0.025 0.9 0.025 0.2 0.2 0.2 0.2 0.2 0.2 0.2 0.2 0.2 0.2 0.004878048780487806 0.2 0.3951219512195122 0.3951219512195122 0.004878048780487806 0.02222222222222223 0.02222222222222223 0.02222222222222223 0.9111111111111112 0.02222222222222223 0.0125 0.0125 0.9500000000000002 0.0125 0.0125 0.2 0.2 0.2 0.2 0.2 0.2 0.2 0.2 0.2 0.2 0.1 0.1 0.1 0.1 0.6 0.01176470588235294 0.01176470588235294 0.01176470588235294 0.01176470588235294 0.9529411764705882 0.01428571428571429 0.01428571428571429 0.01428571428571429 0.01428571428571429 0.9428571428571427 0.06666666666666667 0.06666666666666667 0.06666666666666667 0.06666666666666667 0.7333333333333334 0.0125 0.0125 0.0125 0.0125 0.95 0.02857142857142857 0.02857142857142857 0.02857142857142857 0.02857142857142857 0.8857142857142857 0.0125 0.0125 0.0125 0.1375 0.825 0.009090909090909092 0.009090909090909092 0.009090909090909092 0.8727272727272727 0.1 0.007142857142857143 0.007142857142857143 0.007142857142857143 0.5071428571428571 0.4714285714285714 0.15 0.4 0.025 0.025 0.4 0.168 0.048 0.008 0.008 0.768 0.01 0.01 0.01 0.01 0.96 0.01666666666666667 0.01666666666666667 0.2666666666666667 0.01666666666666667 0.6833333333333332 0.5076923076923077 0.1230769230769231 0.007692307692307693 0.007692307692307693 0.3538461538461539 0.007142857142857144 0.9714285714285715 0.007142857142857144 0.007142857142857144 0.007142857142857144 0.03333333333333333 0.03333333333333333 0.03333333333333333 0.03333333333333333 0.8666666666666667 0.2 0.2 0.2 0.2 0.2 0.5545454545454546 0.009090909090909092 0.009090909090909092 0.009090909090909092 0.4181818181818182 0.2 0.2 0.2 0.2 0.2 0.03333333333333333 0.03333333333333333 0.03333333333333333 0.6999999999999998 0.2 0.2 0.2 0.2 0.2 0.2 0.006451612903225806 0.006451612903225806 0.006451612903225806 0.4258064516129032 0.5548387096774193 0.01428571428571429 0.01428571428571429 0.01428571428571429 0.7285714285714284 0.2285714285714286 0.01176470588235294 0.01176470588235294 0.01176470588235294 0.2470588235294118 0.7176470588235293 0.2 0.2 0.2 0.2 0.2 0.02857142857142857 0.02857142857142857 0.02857142857142857 0.02857142857142857 0.8857142857142857 0.06666666666666667 0.06666666666666667 0.06666666666666667 0.06666666666666667 0.7333333333333334 0.01818181818181818 0.01818181818181818 0.1090909090909091 0.1090909090909091 0.7454545454545454 0.2 0.2 0.2 0.2 0.2 0.0125 0.0125 0.0125 0.075 0.8875 0.2 0.2 0.2 0.2 0.2 0.03333333333333333 0.03333333333333333 0.8666666666666665 0.03333333333333333 0.03333333333333333 0.2 0.2 0.2 0.2 0.2 0.2 0.2 0.2 0.2 0.2 0.2 0.2 0.2 0.2 0.2 0.02222222222222223 0.02222222222222223 0.9111111111111112 0.02222222222222223 0.02222222222222223 0.2 0.2 0.2 0.2 0.2 0.2 0.2 0.2 0.2 0.2 0.2 0.2 0.2 0.2 0.2 0.2 0.2 0.2 0.2 0.2 0.02857142857142857 0.02857142857142857 0.3142857142857143 0.6 0.02857142857142857 0.2 0.2 0.2 0.2 0.2 0.2 0.2 0.2 0.2 0.2 0.2 0.2 0.2 0.2 0.2 0.2 0.2 0.2 0.2 0.2 0.2 0.2 0.2 0.2 0.2 0.2 0.2 0.2 0.2 0.2 0.02222222222222223 0.9111111111111114 0.02222222222222223 0.02222222222222223 0.02222222222222223 0.2 0.2 0.2 0.2 0.2 0.2 0.2 0.2 0.2 0.2 0.2 0.2 0.2 0.2 0.2 0.008333333333333335 0.7583333333333334 0.2166666666666667 0.008333333333333335 0.008333333333333335 0.2 0.2 0.2 0.2 0.2 0.2 0.2 0.2 0.2 0.2 0.2 0.2 0.2 0.2 0.2 0.1 0.1 0.6 0.1 0.1 0.2 0.2 0.2 0.2 0.2 0.2 0.2 0.2 0.2 0.2 0.2 0.2 0.2 0.2 0.2 0.06666666666666665 0.7333333333333333 0.06666666666666665 0.06666666666666665 0.06666666666666665 0.02857142857142857 0.8857142857142857 0.02857142857142857 0.02857142857142857 0.02857142857142857 0.2 0.2 0.2 0.2 0.2 0.2 0.2 0.2 0.2 0.2 0.2 0.2 0.2 0.2 0.2 0.1 0.6000000000000001 0.1 0.1 0.1 0.2 0.2 0.2 0.2 0.2 0.2 0.2 0.2 0.2 0.2 0.2 0.2 0.2 0.2 0.2 0.2 0.2 0.2 0.2 0.2 0.2 0.2 0.2 0.2 0.2 0.2 0.2 0.2 0.2 0.2 0.2 0.2 0.2 0.2 0.2 0.2 0.2 0.2 0.2 0.2 0.2 0.2 0.2 0.2 0.2 0.2 0.2 0.2 0.2 0.2 0.2 0.2 0.2 0.2 0.2 0.2 0.2 0.2 0.2 0.2 0.2 0.2 0.2 0.2 0.2 0.2 0.2 0.2 0.2 0.2 0.04999999999999999 0.7999999999999998 0.04999999999999999 0.04999999999999999 0.04999999999999999 0.06666666666666667 0.06666666666666667 0.06666666666666667 0.06666666666666667 0.7333333333333334 0.2 0.2 0.2 0.2 0.2 0.2 0.2 0.2 0.2 0.2 0.2 0.2 0.2 0.2 0.2 0.1 0.1 0.1 0.1 0.6 0.2 0.2 0.2 0.2 0.2 0.2 0.2 0.2 0.2 0.2 0.2 0.2 0.2 0.2 0.2 0.2 0.2 0.2 0.2 0.2 0.2 0.2 0.2 0.2 0.2 0.2 0.2 0.2 0.2 0.2 0.0125 0.0125 0.0125 0.325 0.6375 0.2 0.2 0.2 0.2 0.2 0.03333333333333333 0.03333333333333333 0.8666666666666665 0.03333333333333333 0.03333333333333333 0.2 0.2 0.2 0.2 0.2 0.025 0.025 0.025 0.025 0.9 0.2 0.2 0.2 0.2 0.2 0.04000000000000001 0.04000000000000001 0.4400000000000001 0.04000000000000001 0.4400000000000001 0.2 0.2 0.2 0.2 0.2 0.01818181818181818 0.01818181818181818 0.01818181818181818 0.01818181818181818 0.9272727272727272 0.2 0.2 0.2 0.2 0.2 0.2 0.2 0.2 0.2 0.2 0.006451612903225806 0.006451612903225806 0.006451612903225806 0.006451612903225806 0.9741935483870967 0.04000000000000001 0.04000000000000001 0.04000000000000001 0.04000000000000001 0.8400000000000001 0.04000000000000001 0.24 0.24 0.04000000000000001 0.4400000000000001 0.2 0.2 0.2 0.2 0.2 0.7999999999999998 0.04999999999999999 0.04999999999999999 0.04999999999999999 0.04999999999999999 0.1 0.1 0.1 0.1 0.6 0.4 0.525 0.025 0.025 0.025 0.1 0.1 0.1 0.1 0.6 0.9 0.025 0.025 0.025 0.025 0.1 0.1 0.1 0.1 0.6 0.3666666666666666 0.5333333333333332 0.03333333333333333 0.03333333333333333 0.03333333333333333 0.2 0.2 0.2 0.2 0.2 0.02222222222222223 0.9111111111111114 0.02222222222222223 0.02222222222222223 0.02222222222222223 0.2 0.2 0.2 0.2 0.2 0.2 0.2 0.2 0.2 0.2 0.2 0.2 0.2 0.2 0.2 0.2 0.2 0.2 0.2 0.2 0.2 0.2 0.2 0.2 0.2 0.02222222222222222 0.02222222222222222 0.02222222222222222 0.5777777777777777 0.3555555555555556 0.2 0.2 0.2 0.2 0.2 0.0125 0.0125 0.0125 0.9500000000000002 0.0125 0.025 0.025 0.025 0.15 0.775 0.2 0.2 0.2 0.2 0.2 0.05 0.05 0.05 0.05 0.8 0.01333333333333333 0.01333333333333333 0.01333333333333333 0.7466666666666666 0.2133333333333333 0.02222222222222223 0.02222222222222223 0.02222222222222223 0.9111111111111112 0.02222222222222223 0.2 0.2 0.2 0.2 0.2 0.02 0.02 0.02 0.9200000000000002 0.02 0.03333333333333333 0.03333333333333333 0.03333333333333333 0.03333333333333333 0.8666666666666667 0.2 0.2 0.2 0.2 0.2 0.1 0.1 0.1 0.1 0.6 0.2 0.2 0.2 0.2 0.2 0.2 0.2 0.2 0.2 0.2 0.2 0.2 0.2 0.2 0.2 0.2 0.2 0.2 0.2 0.2 0.2 0.2 0.2 0.2 0.2 0.2 0.2 0.2 0.2 0.2 0.2 0.2 0.2 0.2 0.2 0.05 0.05 0.05 0.8 0.05 0.2 0.2 0.2 0.2 0.2 0.2 0.2 0.2 0.2 0.2 0.2 0.2 0.2 0.2 0.2 0.2 0.2 0.2 0.2 0.2 0.2 0.2 0.2 0.2 0.2 0.2 0.2 0.2 0.2 0.2 0.2 0.2 0.2 0.2 0.2 0.05 0.05 0.05 0.8 0.05 0.2 0.2 0.2 0.2 0.2 0.2 0.2 0.2 0.2 0.2 0.01818181818181819 0.7454545454545456 0.2000000000000001 0.01818181818181819 0.01818181818181819 0.2 0.2 0.2 0.2 0.2 0.1 0.1 0.6 0.1 0.1 0.2 0.2 0.2 0.2 0.2 0.2 0.2 0.2 0.2 0.2 0.2 0.2 0.2 0.2 0.2 0.2 0.2 0.2 0.2 0.2 0.2 0.2 0.2 0.2 0.2 0.2 0.2 0.2 0.2 0.2 0.2 0.2 0.2 0.2 0.2 0.2 0.2 0.2 0.2 0.2 0.2 0.2 0.2 0.2 0.2 0.2 0.2 0.2 0.2 0.2 0.2 0.2 0.2 0.2 0.2 0.2 0.2 0.2 0.2 0.2 0.2 0.2 0.2 0.2 0.2 0.2 0.2 0.2 0.2 0.2 0.2 0.2 0.2 0.2 0.2 0.2 0.2 0.2 0.2 0.2 0.2 0.2 0.2 0.2 0.2 0.2 0.2 0.2 0.2 0.2 0.2 0.2 0.2 0.2 0.2 0.2 0.2 0.2 0.2 0.2 0.2 0.2 0.2 0.2 0.2 0.2 0.2 0.2 0.2 0.2 0.2 0.2 0.2 0.2 0.2 0.2 0.2 0.2 0.2 0.2 0.2 0.2 0.2 0.2 0.2 0.2 0.2 0.2 0.2 0.2 0.06666666666666667 0.06666666666666667 0.4 0.06666666666666667 0.4 0.2 0.2 0.2 0.2 0.2 0.2 0.2 0.2 0.2 0.2 0.2 0.2 0.2 0.2 0.2 0.06666666666666667 0.06666666666666667 0.06666666666666667 0.06666666666666667 0.7333333333333334 0.2 0.2 0.2 0.2 0.2 0.2 0.2 0.2 0.2 0.2 0.04000000000000001 0.04000000000000001 0.04000000000000001 0.04000000000000001 0.8400000000000001 0.2 0.2 0.2 0.2 0.2 0.2 0.2 0.2 0.2 0.2 0.1 0.6000000000000001 0.1 0.1 0.1 0.2 0.2 0.2 0.2 0.2 0.01538461538461539 0.9384615384615387 0.01538461538461539 0.01538461538461539 0.01538461538461539 0.03333333333333333 0.03333333333333333 0.03333333333333333 0.03333333333333333 0.8666666666666667 0.01111111111111111 0.6777777777777779 0.288888888888889 0.01111111111111111 0.01111111111111111 0.2 0.2 0.2 0.2 0.2 0.2 0.2 0.2 0.2 0.2 0.02857142857142857 0.02857142857142857 0.02857142857142857 0.02857142857142857 0.8857142857142857 0.2 0.2 0.2 0.2 0.2 0.05 0.05 0.05 0.05 0.8 0.02 0.02 0.02 0.02 0.9199999999999999 0.01 0.01 0.66 0.01 0.3100000000000001 0.02 0.02 0.6200000000000001 0.02 0.3200000000000001 0.2 0.2 0.2 0.2 0.2 0.06666666666666667 0.06666666666666667 0.06666666666666667 0.06666666666666667 0.7333333333333334 0.01666666666666667 0.01666666666666667 0.01666666666666667 0.2666666666666667 0.6833333333333332 0.03999999999999999 0.03999999999999999 0.8399999999999999 0.03999999999999999 0.03999999999999999 0.2 0.2 0.2 0.2 0.2 0.1 0.6000000000000001 0.1 0.1 0.1 0.2 0.2 0.2 0.2 0.2 0.2 0.2 0.2 0.2 0.2 0.2 0.2 0.2 0.2 0.2 0.4 0.525 0.025 0.025 0.025 0.2 0.2 0.2 0.2 0.2 0.2 0.2 0.2 0.2 0.2 0.2 0.2 0.2 0.2 0.2 0.6000000000000001 0.1 0.1 0.1 0.1 0.2 0.2 0.2 0.2 0.2 0.2 0.2 0.2 0.2 0.2 0.2 0.2 0.2 0.2 0.2 0.008 0.008 0.008 0.048 0.9279999999999999 0.2 0.2 0.2 0.2 0.2 0.1 0.1 0.1 0.1 0.6 0.2 0.2 0.2 0.2 0.2 0.04000000000000001 0.04000000000000001 0.04000000000000001 0.6400000000000001 0.24 0.02857142857142857 0.02857142857142857 0.02857142857142857 0.02857142857142857 0.8857142857142857 0.05 0.05 0.05 0.05 0.8 0.2 0.2 0.2 0.2 0.2 0.02 0.02 0.02 0.9200000000000002 0.02 0.03333333333333333 0.03333333333333333 0.03333333333333333 0.8666666666666665 0.03333333333333333 0.02222222222222222 0.02222222222222222 0.02222222222222222 0.02222222222222222 0.911111111111111 0.2 0.2 0.2 0.2 0.2 0.02857142857142857 0.02857142857142857 0.02857142857142857 0.02857142857142857 0.8857142857142857 0.1 0.1 0.1 0.6 0.1 0.2 0.2 0.2 0.2 0.2 0.2 0.2 0.2 0.2 0.2 0.2 0.2 0.2 0.2 0.2 0.2 0.2 0.2 0.2 0.2 0.2 0.2 0.2 0.2 0.2 0.2 0.2 0.2 0.2 0.2 0.05 0.05 0.05 0.8 0.05 0.2 0.2 0.2 0.2 0.2 0.2 0.2 0.2 0.2 0.2 0.2 0.2 0.2 0.2 0.2 0.2 0.2 0.2 0.2 0.2 0.2 0.2 0.2 0.2 0.2 0.2 0.2 0.2 0.2 0.2 0.2 0.2 0.2 0.2 0.2 0.1 0.1 0.1 0.6 0.1 0.2 0.2 0.2 0.2 0.2 0.2 0.2 0.2 0.2 0.2 0.06666666666666665 0.7333333333333333 0.06666666666666665 0.06666666666666665 0.06666666666666665 0.2 0.2 0.2 0.2 0.2 0.06666666666666667 0.06666666666666667 0.4 0.4 0.06666666666666667 0.2 0.2 0.2 0.2 0.2 0.2 0.2 0.2 0.2 0.2 0.2 0.2 0.2 0.2 0.2 0.2 0.2 0.2 0.2 0.2 0.2 0.2 0.2 0.2 0.2 0.2 0.2 0.2 0.2 0.2 0.03999999999999999 0.8399999999999999 0.03999999999999999 0.03999999999999999 0.03999999999999999 0.2 0.2 0.2 0.2 0.2 0.2 0.2 0.2 0.2 0.2 0.2 0.2 0.2 0.2 0.2 0.1 0.6000000000000001 0.1 0.1 0.1 0.2 0.2 0.2 0.2 0.2 0.2 0.2 0.2 0.2 0.2 0.2 0.2 0.2 0.2 0.2 0.2 0.2 0.2 0.2 0.2 0.2 0.2 0.2 0.2 0.2 0.2 0.2 0.2 0.2 0.2 0.2 0.2 0.2 0.2 0.2 0.2 0.2 0.2 0.2 0.2 0.2 0.2 0.2 0.2 0.2 0.2 0.2 0.2 0.2 0.2 0.2 0.2 0.2 0.2 0.2 0.2 0.2 0.2 0.2 0.2 0.2 0.2 0.2 0.2 0.2 0.2 0.2 0.2 0.2 0.2 0.2 0.2 0.2 0.2 0.2 0.009523809523809525 0.009523809523809525 0.3428571428571429 0.009523809523809525 0.6285714285714284 0.2 0.2 0.2 0.2 0.2 0.2 0.2 0.2 0.2 0.2 0.2 0.2 0.2 0.2 0.2 0.05 0.05 0.05 0.05 0.8 0.2 0.2 0.2 0.2 0.2 0.2 0.2 0.2 0.2 0.2 0.01818181818181818 0.01818181818181818 0.01818181818181818 0.01818181818181818 0.9272727272727272 0.2 0.2 0.2 0.2 0.2 0.025 0.025 0.025 0.9 0.025 0.1 0.1 0.1 0.6 0.1 0.2 0.2 0.2 0.2 0.2 0.005555555555555556 0.3944444444444444 0.005555555555555556 0.5888888888888888 0.005555555555555556 0.025 0.025 0.025 0.275 0.65 0.005555555555555555 0.005555555555555555 0.005555555555555555 0.9777777777777776 0.005555555555555555 0.2 0.2 0.2 0.2 0.2 0.2 0.2 0.2 0.2 0.2 0.2 0.2 0.2 0.2 0.2 0.2 0.2 0.2 0.2 0.2 0.2 0.2 0.2 0.2 0.2 0.025 0.025 0.025 0.025 0.9 0.1 0.1 0.1 0.6 0.1 0.01111111111111111 0.01111111111111111 0.4 0.01111111111111111 0.5666666666666665 0.01538461538461539 0.01538461538461539 0.01538461538461539 0.2461538461538462 0.7076923076923077 0.009090909090909092 0.009090909090909092 0.05454545454545454 0.009090909090909092 0.9181818181818182 0.008 0.008 0.008 0.248 0.728 0.02222222222222222 0.02222222222222222 0.7999999999999999 0.02222222222222222 0.1333333333333333 0.01176470588235294 0.01176470588235294 0.01176470588235294 0.6588235294117647 0.3058823529411765 0.01538461538461539 0.01538461538461539 0.01538461538461539 0.01538461538461539 0.9384615384615385 0.02 0.02 0.02 0.9200000000000002 0.02 0.2 0.2 0.2 0.2 0.2 0.2 0.2 0.2 0.2 0.2 0.8857142857142857 0.02857142857142857 0.02857142857142857 0.02857142857142857 0.02857142857142857 0.2 0.2 0.2 0.2 0.2 0.2 0.2 0.2 0.2 0.2 0.2 0.2 0.2 0.2 0.2 0.7333333333333333 0.06666666666666665 0.06666666666666665 0.06666666666666665 0.06666666666666665 0.2 0.2 0.2 0.2 0.2 0.2 0.2 0.2 0.2 0.2 0.2 0.2 0.2 0.2 0.2 0.01052631578947368 0.01052631578947368 0.01052631578947368 0.01052631578947368 0.9578947368421051 0.06666666666666667 0.06666666666666667 0.06666666666666667 0.06666666666666667 0.7333333333333334 0.008 0.008 0.008 0.008 0.968 0.2 0.2 0.2 0.2 0.2 0.01 0.01 0.01 0.01 0.96 0.04000000000000001 0.04000000000000001 0.04000000000000001 0.04000000000000001 0.8400000000000001 0.2 0.2 0.2 0.2 0.2 0.2 0.2 0.2 0.2 0.2 0.02857142857142857 0.02857142857142857 0.02857142857142857 0.02857142857142857 0.8857142857142857 0.02857142857142857 0.02857142857142857 0.02857142857142857 0.8857142857142857 0.02857142857142857 0.2 0.2 0.2 0.2 0.2 0.2 0.2 0.2 0.2 0.2 0.006451612903225806 0.006451612903225806 0.006451612903225806 0.2 0.7806451612903226 0.03333333333333333 0.03333333333333333 0.03333333333333333 0.03333333333333333 0.8666666666666667 0.2 0.2 0.2 0.2 0.2 0.2 0.2 0.2 0.2 0.2 0.03999999999999999 0.03999999999999999 0.03999999999999999 0.8399999999999999 0.03999999999999999 0.2 0.2 0.2 0.2 0.2 0.2 0.2 0.2 0.2 0.2 0.2 0.2 0.2 0.2 0.2 0.01818181818181818 0.01818181818181818 0.01818181818181818 0.9272727272727274 0.01818181818181818 0.2 0.2 0.2 0.2 0.2 0.2 0.2 0.2 0.2 0.2 0.2 0.2 0.2 0.2 0.2 0.03999999999999999 0.03999999999999999 0.03999999999999999 0.8399999999999999 0.03999999999999999 0.2 0.2 0.2 0.2 0.2 0.2 0.2 0.2 0.2 0.2 0.2 0.2 0.2 0.2 0.2 0.02 0.02 0.02 0.9200000000000002 0.02 0.2 0.2 0.2 0.2 0.2 0.2 0.2 0.2 0.2 0.2 0.2 0.2 0.2 0.2 0.2 0.2 0.2 0.2 0.2 0.2 0.02222222222222222 0.02222222222222222 0.6888888888888889 0.02222222222222222 0.2444444444444445 0.2 0.2 0.2 0.2 0.2 0.2 0.2 0.2 0.2 0.2 0.2 0.2 0.2 0.2 0.2 0.2 0.2 0.2 0.2 0.2 0.2 0.2 0.2 0.2 0.2 0.2 0.2 0.2 0.2 0.2 0.02 0.02 0.8200000000000001 0.12 0.02 0.2 0.2 0.2 0.2 0.2 0.2 0.2 0.2 0.2 0.2 0.025 0.025 0.9 0.025 0.025 0.03333333333333333 0.03333333333333333 0.8666666666666665 0.03333333333333333 0.03333333333333333 0.03999999999999999 0.03999999999999999 0.8399999999999999 0.03999999999999999 0.03999999999999999 0.2 0.2 0.2 0.2 0.2 0.2 0.2 0.2 0.2 0.2 0.2 0.2 0.2 0.2 0.2 0.02857142857142857 0.02857142857142857 0.8857142857142857 0.02857142857142857 0.02857142857142857 0.2 0.2 0.2 0.2 0.2 0.2 0.2 0.2 0.2 0.2 0.025 0.025 0.025 0.9 0.025 0.2 0.2 0.2 0.2 0.2 0.2 0.2 0.2 0.2 0.2 0.04999999999999999 0.7999999999999998 0.04999999999999999 0.04999999999999999 0.04999999999999999 0.01666666666666667 0.01666666666666667 0.01666666666666667 0.9333333333333333 0.01666666666666667 0.2 0.2 0.2 0.2 0.2 0.02857142857142857 0.02857142857142857 0.8857142857142857 0.02857142857142857 0.02857142857142857 0.2 0.2 0.2 0.2 0.2 0.2 0.2 0.2 0.2 0.2 0.2 0.2 0.2 0.2 0.2 0.2 0.2 0.2 0.2 0.2 0.02857142857142857 0.02857142857142857 0.02857142857142857 0.02857142857142857 0.8857142857142857 0.2 0.2 0.2 0.2 0.2 0.2 0.2 0.2 0.2 0.2 0.2 0.2 0.2 0.2 0.2 0.01111111111111111 0.01111111111111111 0.2888888888888889 0.01111111111111111 0.6777777777777777 0.2 0.2 0.2 0.2 0.2 0.2 0.2 0.2 0.2 0.2 0.2 0.2 0.2 0.2 0.2 0.1 0.1 0.6 0.1 0.1 0.2 0.2 0.2 0.2 0.2 0.025 0.025 0.9 0.025 0.025 0.2 0.2 0.2 0.2 0.2 0.01052631578947368 0.2210526315789474 0.7473684210526315 0.01052631578947368 0.01052631578947368 0.2 0.2 0.2 0.2 0.2 0.2 0.2 0.2 0.2 0.2 0.2 0.2 0.2 0.2 0.2 0.01818181818181818 0.01818181818181818 0.01818181818181818 0.9272727272727274 0.01818181818181818 0.01666666666666667 0.01666666666666667 0.01666666666666667 0.9333333333333333 0.01666666666666667 0.02857142857142857 0.02857142857142857 0.02857142857142857 0.02857142857142857 0.8857142857142857 0.2 0.2 0.2 0.2 0.2 0.007407407407407408 0.007407407407407408 0.007407407407407408 0.8592592592592592 0.1185185185185185 0.02857142857142857 0.02857142857142857 0.02857142857142857 0.02857142857142857 0.8857142857142857 0.05 0.05 0.05 0.05 0.8 0.2 0.2 0.2 0.2 0.2 0.01111111111111111 0.06666666666666667 0.01111111111111111 0.4 0.5111111111111111 0.02 0.02 0.02 0.02 0.9199999999999999 0.1 0.6000000000000001 0.1 0.1 0.1 0.2 0.2 0.2 0.2 0.2 0.16 0.5600000000000001 0.004444444444444444 0.004444444444444444 0.2711111111111111 0.05 0.05 0.05 0.55 0.3 0.009090909090909092 0.2818181818181819 0.009090909090909092 0.009090909090909092 0.6909090909090909 0.2 0.2 0.2 0.2 0.2 0.01666666666666667 0.9333333333333336 0.01666666666666667 0.01666666666666667 0.01666666666666667 0.06666666666666667 0.06666666666666667 0.06666666666666667 0.06666666666666667 0.7333333333333334 0.2 0.2 0.2 0.2 0.2 0.2 0.2 0.2 0.2 0.2 0.2 0.2 0.2 0.2 0.2 0.2 0.2 0.2 0.2 0.2 0.03333333333333333 0.03333333333333333 0.03333333333333333 0.5333333333333333 0.3666666666666667 0.2 0.2 0.2 0.2 0.2 0.2 0.2 0.2 0.2 0.2 0.2 0.2 0.2 0.2 0.2 0.02857142857142857 0.1714285714285714 0.02857142857142857 0.1714285714285714 0.6 0.2 0.2 0.2 0.2 0.2 0.025 0.15 0.025 0.275 0.525 0.2 0.2 0.2 0.2 0.2 0.009523809523809526 0.5333333333333334 0.1523809523809524 0.1047619047619048 0.2000000000000001 0.2 0.2 0.2 0.2 0.2 0.2 0.2 0.2 0.2 0.2 0.01176470588235294 0.01176470588235294 0.6588235294117647 0.3058823529411765 0.01176470588235294 0.01666666666666667 0.01666666666666667 0.6 0.01666666666666667 0.35 0.2 0.2 0.2 0.2 0.2 0.2 0.2 0.2 0.2 0.2 0.2 0.2 0.2 0.2 0.2 0.2 0.2 0.2 0.2 0.2 0.2 0.2 0.2 0.2 0.2 0.1 0.1 0.1 0.6 0.1 0.02222222222222223 0.02222222222222223 0.02222222222222223 0.9111111111111112 0.02222222222222223 0.2 0.2 0.2 0.2 0.2 0.2 0.2 0.2 0.2 0.2 0.2 0.2 0.2 0.2 0.2 0.02857142857142857 0.7428571428571429 0.02857142857142857 0.1714285714285714 0.02857142857142857 0.02857142857142857 0.02857142857142857 0.02857142857142857 0.8857142857142857 0.02857142857142857 0.2 0.2 0.2 0.2 0.2 0.025 0.9 0.025 0.025 0.025 0.02222222222222223 0.02222222222222223 0.02222222222222223 0.9111111111111112 0.02222222222222223 0.2 0.2 0.2 0.2 0.2 0.2 0.2 0.2 0.2 0.2 0.1 0.6000000000000001 0.1 0.1 0.1 0.2 0.2 0.2 0.2 0.2 0.01428571428571429 0.01428571428571429 0.9428571428571429 0.01428571428571429 0.01428571428571429 0.2 0.2 0.2 0.2 0.2 0.2 0.2 0.2 0.2 0.2 0.2 0.2 0.2 0.2 0.2 0.2 0.2 0.2 0.2 0.2 0.2 0.2 0.2 0.2 0.2 0.2 0.2 0.2 0.2 0.2 0.03999999999999999 0.8399999999999999 0.03999999999999999 0.03999999999999999 0.03999999999999999 0.02857142857142857 0.02857142857142857 0.8857142857142857 0.02857142857142857 0.02857142857142857 0.2 0.2 0.2 0.2 0.2 0.2 0.2 0.2 0.2 0.2 0.1 0.1 0.1 0.6 0.1 0.01538461538461539 0.01538461538461539 0.9384615384615385 0.01538461538461539 0.01538461538461539 0.2 0.2 0.2 0.2 0.2 0.2 0.2 0.2 0.2 0.2 0.03333333333333333 0.03333333333333333 0.03333333333333333 0.8666666666666665 0.03333333333333333 0.2 0.2 0.2 0.2 0.2 0.2 0.2 0.2 0.2 0.2 0.2 0.2 0.2 0.2 0.2 0.03333333333333333 0.03333333333333333 0.03333333333333333 0.8666666666666665 0.03333333333333333 0.2 0.2 0.2 0.2 0.2 0.2 0.2 0.2 0.2 0.2 0.2 0.2 0.2 0.2 0.2 0.2 0.2 0.2 0.2 0.2 0.2 0.2 0.2 0.2 0.2 0.2 0.2 0.2 0.2 0.2 0.4428571428571428 0.01428571428571429 0.01428571428571429 0.01428571428571429 0.5142857142857142 0.4 0.025 0.525 0.025 0.025 0.06666666666666667 0.06666666666666667 0.06666666666666667 0.06666666666666667 0.7333333333333334 0.2 0.2 0.2 0.2 0.2 0.6000000000000001 0.1 0.1 0.1 0.1 0.8857142857142857 0.02857142857142857 0.02857142857142857 0.02857142857142857 0.02857142857142857 0.2 0.2 0.2 0.2 0.2 0.2 0.2 0.2 0.2 0.2 0.2 0.2 0.2 0.2 0.2 0.1 0.1 0.1 0.6 0.1 0.2 0.2 0.2 0.2 0.2 0.2 0.2 0.2 0.2 0.2 0.2 0.2 0.2 0.2 0.2 0.2 0.2 0.2 0.2 0.2 0.2 0.2 0.2 0.2 0.2 0.2 0.2 0.2 0.2 0.2 0.03999999999999999 0.03999999999999999 0.03999999999999999 0.8399999999999999 0.03999999999999999 0.2 0.2 0.2 0.2 0.2 0.2 0.2 0.2 0.2 0.2 0.2 0.2 0.2 0.2 0.2 0.2 0.2 0.2 0.2 0.2 0.2 0.2 0.2 0.2 0.2 0.01 0.01 0.16 0.21 0.61 0.06666666666666667 0.06666666666666667 0.06666666666666667 0.06666666666666667 0.7333333333333334 0.05 0.05 0.8 0.05 0.05 0.04000000000000001 0.04000000000000001 0.04000000000000001 0.04000000000000001 0.8400000000000001 0.01333333333333333 0.3466666666666667 0.4133333333333333 0.01333333333333333 0.2133333333333333 0.2 0.2 0.2 0.2 0.2 0.008333333333333335 0.008333333333333335 0.425 0.55 0.008333333333333335 0.2 0.2 0.2 0.2 0.2 0.01428571428571429 0.7285714285714288 0.2285714285714286 0.01428571428571429 0.01428571428571429 0.2 0.2 0.2 0.2 0.2 0.01538461538461539 0.01538461538461539 0.9384615384615385 0.01538461538461539 0.01538461538461539 0.1 0.1 0.6 0.1 0.1 0.7333333333333333 0.06666666666666665 0.06666666666666665 0.06666666666666665 0.06666666666666665 0.2 0.2 0.2 0.2 0.2 0.2 0.2 0.2 0.2 0.2 0.2 0.2 0.2 0.2 0.2 0.3230769230769231 0.01538461538461539 0.01538461538461539 0.01538461538461539 0.6307692307692307 0.2 0.2 0.2 0.2 0.2 0.2 0.2 0.2 0.2 0.2 0.2 0.2 0.2 0.2 0.2 0.025 0.025 0.025 0.275 0.65 0.05 0.05 0.05 0.05 0.8 0.2 0.2 0.2 0.2 0.2 0.2 0.2 0.2 0.2 0.2 0.2 0.2 0.2 0.2 0.2 0.2 0.2 0.2 0.2 0.2 0.2 0.2 0.2 0.2 0.2 0.2 0.2 0.2 0.2 0.2 0.01666666666666667 0.01666666666666667 0.2666666666666667 0.01666666666666667 0.6833333333333332 0.2 0.2 0.2 0.2 0.2 0.1 0.1 0.6 0.1 0.1 0.2 0.2 0.2 0.2 0.2 0.03333333333333333 0.03333333333333333 0.8666666666666665 0.03333333333333333 0.03333333333333333 0.2 0.2 0.2 0.2 0.2 0.2 0.2 0.2 0.2 0.2 0.2 0.2 0.2 0.2 0.2 0.2 0.2 0.2 0.2 0.2 0.2 0.2 0.2 0.2 0.2 0.2 0.2 0.2 0.2 0.2 0.06666666666666665 0.06666666666666665 0.06666666666666665 0.7333333333333333 0.06666666666666665 0.2 0.2 0.2 0.2 0.2 0.2 0.2 0.2 0.2 0.2 0.2 0.2 0.2 0.2 0.2 0.03333333333333333 0.8666666666666665 0.03333333333333333 0.03333333333333333 0.03333333333333333 0.2 0.2 0.2 0.2 0.2 0.2 0.2 0.2 0.2 0.2 0.2 0.2 0.2 0.2 0.2 0.2 0.2 0.2 0.2 0.2 0.2 0.2 0.2 0.2 0.2 0.2 0.2 0.2 0.2 0.2 0.02000000000000001 0.9200000000000003 0.02000000000000001 0.02000000000000001 0.02000000000000001 0.03333333333333333 0.8666666666666665 0.03333333333333333 0.03333333333333333 0.03333333333333333 0.06666666666666665 0.06666666666666665 0.7333333333333333 0.06666666666666665 0.06666666666666665 0.2 0.2 0.2 0.2 0.2 0.2 0.2 0.2 0.2 0.2 0.2 0.2 0.2 0.2 0.2 0.2 0.2 0.2 0.2 0.2 0.2 0.2 0.2 0.2 0.2 0.2 0.2 0.2 0.2 0.2 0.2 0.2 0.2 0.2 0.2 0.2 0.2 0.2 0.2 0.2 0.2 0.2 0.2 0.2 0.2 0.2 0.2 0.2 0.2 0.2 0.1 0.6000000000000001 0.1 0.1 0.1 0.2 0.2 0.2 0.2 0.2 0.2 0.2 0.2 0.2 0.2 0.2 0.2 0.2 0.2 0.2 0.2 0.2 0.2 0.2 0.2 0.2 0.2 0.2 0.2 0.2 0.2 0.2 0.2 0.2 0.2 0.2 0.2 0.2 0.2 0.2 0.2 0.2 0.2 0.2 0.2 0.2 0.2 0.2 0.2 0.2 0.2 0.2 0.2 0.2 0.2 0.2 0.2 0.2 0.2 0.2 0.2 0.2 0.2 0.2 0.2 0.2 0.2 0.2 0.2 0.2 0.2 0.2 0.2 0.2 0.2 0.8615384615384617 0.01538461538461539 0.01538461538461539 0.01538461538461539 0.09230769230769233 0.3 0.05 0.55 0.05 0.05 0.2 0.2 0.2 0.2 0.2 0.2 0.2 0.2 0.2 0.2 0.2 0.2 0.2 0.2 0.2 0.8666666666666665 0.03333333333333333 0.03333333333333333 0.03333333333333333 0.03333333333333333 0.2 0.2 0.2 0.2 0.2 0.2 0.2 0.2 0.2 0.2 0.2 0.2 0.2 0.2 0.2 0.2 0.2 0.2 0.2 0.2 0.2 0.2 0.2 0.2 0.2 0.2 0.2 0.2 0.2 0.2 0.2 0.2 0.2 0.2 0.2 0.2 0.2 0.2 0.2 0.2 0.2 0.2 0.2 0.2 0.2 0.2 0.2 0.2 0.2 0.2 0.2 0.2 0.2 0.2 0.2 0.2 0.2 0.2 0.2 0.2 0.2 0.2 0.2 0.2 0.2 0.2 0.2 0.2 0.2 0.2 0.2 0.2 0.2 0.2 0.2 0.1 0.1 0.1 0.6 0.1 0.025 0.025 0.9 0.025 0.025 0.3 0.05 0.05 0.05 0.55 0.2 0.2 0.2 0.2 0.2 0.1 0.1 0.1 0.1 0.6 0.06666666666666665 0.7333333333333333 0.06666666666666665 0.06666666666666665 0.06666666666666665 0.9529411764705884 0.01176470588235294 0.01176470588235294 0.01176470588235294 0.01176470588235294 0.2 0.2 0.2 0.2 0.2 0.6000000000000001 0.1 0.1 0.1 0.1 0.02857142857142857 0.1714285714285714 0.02857142857142857 0.02857142857142857 0.7428571428571429 0.2 0.2 0.2 0.2 0.2 0.06666666666666667 0.06666666666666667 0.06666666666666667 0.06666666666666667 0.7333333333333334 0.06666666666666665 0.06666666666666665 0.06666666666666665 0.7333333333333333 0.06666666666666665 0.05 0.05 0.05 0.05 0.8 0.2 0.2 0.2 0.2 0.2 0.2 0.2 0.2 0.2 0.2 0.2 0.2 0.2 0.2 0.2 0.06666666666666667 0.06666666666666667 0.06666666666666667 0.06666666666666667 0.7333333333333334 0.2 0.2 0.2 0.2 0.2 0.2 0.2 0.2 0.2 0.2 0.2 0.2 0.2 0.2 0.2 0.1 0.1 0.1 0.1 0.6 0.2 0.2 0.2 0.2 0.2 0.2 0.2 0.2 0.2 0.2 0.2 0.2 0.2 0.2 0.2 0.2 0.2 0.2 0.2 0.2 0.2 0.2 0.2 0.2 0.2 0.2 0.2 0.2 0.2 0.2 0.2 0.2 0.2 0.2 0.2 0.05 0.05 0.8 0.05 0.05 0.2 0.2 0.2 0.2 0.2 0.2 0.2 0.2 0.2 0.2 0.2 0.2 0.2 0.2 0.2 0.2 0.2 0.2 0.2 0.2 0.2 0.2 0.2 0.2 0.2 0.2 0.2 0.2 0.2 0.2 0.2 0.2 0.2 0.2 0.2 0.2 0.2 0.2 0.2 0.2 0.2 0.2 0.2 0.2 0.2 0.2 0.2 0.2 0.2 0.2 0.2 0.2 0.2 0.2 0.2 0.03999999999999999 0.03999999999999999 0.8399999999999999 0.03999999999999999 0.03999999999999999 0.2 0.2 0.2 0.2 0.2 0.2 0.2 0.2 0.2 0.2 0.2 0.2 0.2 0.2 0.2 0.02857142857142857 0.02857142857142857 0.8857142857142857 0.02857142857142857 0.02857142857142857 0.2 0.2 0.2 0.2 0.2 0.2 0.2 0.2 0.2 0.2 0.2 0.2 0.2 0.2 0.2 0.2 0.2 0.2 0.2 0.2 0.2 0.2 0.2 0.2 0.2 0.2 0.2 0.2 0.2 0.2 0.2 0.2 0.2 0.2 0.2 0.2 0.2 0.2 0.2 0.2 0.2 0.2 0.2 0.2 0.2 0.2 0.2 0.2 0.2 0.2 0.2 0.2 0.2 0.2 0.2 0.2 0.2 0.2 0.2 0.2 0.2 0.2 0.2 0.2 0.2 0.2 0.2 0.2 0.2 0.2 0.2 0.2 0.2 0.2 0.2 0.2 0.2 0.2 0.2 0.2 0.2 0.2 0.2 0.2 0.2 0.2 0.2 0.2 0.2 0.2 0.1 0.6000000000000001 0.1 0.1 0.1 0.2 0.2 0.2 0.2 0.2 0.2 0.2 0.2 0.2 0.2 0.2 0.2 0.2 0.2 0.2 0.2 0.2 0.2 0.2 0.2 0.2 0.2 0.2 0.2 0.2 0.2 0.2 0.2 0.2 0.2 0.2 0.2 0.2 0.2 0.2 0.2 0.2 0.2 0.2 0.2 0.2 0.2 0.2 0.2 0.2 0.2 0.2 0.2 0.2 0.2 0.2 0.2 0.2 0.2 0.2 0.2 0.2 0.2 0.2 0.2 0.2 0.2 0.2 0.2 0.2 0.2 0.2 0.2 0.2 0.2 0.7333333333333333 0.06666666666666665 0.06666666666666665 0.06666666666666665 0.06666666666666665 0.1 0.1 0.6 0.1 0.1 0.2 0.2 0.2 0.2 0.2 0.2 0.2 0.2 0.2 0.2 0.2 0.2 0.2 0.2 0.2 0.2 0.2 0.2 0.2 0.2 0.2 0.2 0.2 0.2 0.2 0.2 0.2 0.2 0.2 0.2 0.2 0.2 0.2 0.2 0.2 0.2 0.2 0.2 0.2 0.2 0.2 0.2 0.2 0.2 0.2 0.2 0.2 0.2 0.2 0.2 0.2 0.2 0.2 0.2 0.2 0.2 0.2 0.2 0.2 0.2 0.2 0.2 0.2 0.2 0.2 0.2 0.2 0.2 0.2 0.2 0.2 0.2 0.2 0.2 0.2 0.2 0.2 0.2 0.2 0.2 0.2 0.2 0.2 0.2 0.2 0.2 0.2 0.2 0.2 0.2 0.2 0.2 0.2 0.2 0.2 0.05 0.05 0.05 0.8 0.05 0.06666666666666665 0.06666666666666665 0.7333333333333333 0.06666666666666665 0.06666666666666665 0.2 0.2 0.2 0.2 0.2 0.2 0.2 0.2 0.2 0.2 0.02 0.02 0.02 0.8200000000000001 0.12 0.2 0.2 0.2 0.2 0.2 0.7333333333333333 0.06666666666666665 0.06666666666666665 0.06666666666666665 0.06666666666666665 0.1 0.1 0.1 0.6 0.1 0.03333333333333333 0.03333333333333333 0.03333333333333333 0.8666666666666665 0.03333333333333333 0.2 0.2 0.2 0.2 0.2 0.7333333333333333 0.06666666666666665 0.06666666666666665 0.06666666666666665 0.06666666666666665 0.03333333333333333 0.03333333333333333 0.03333333333333333 0.8666666666666665 0.03333333333333333 0.2 0.2 0.2 0.2 0.2 0.2 0.2 0.2 0.2 0.2 0.2 0.2 0.2 0.2 0.2 0.2 0.2 0.2 0.2 0.2 0.2 0.2 0.2 0.2 0.2 0.2 0.2 0.2 0.2 0.2 0.2 0.2 0.2 0.2 0.2 0.2 0.2 0.2 0.2 0.2 0.2 0.2 0.2 0.2 0.2 0.2 0.2 0.2 0.2 0.2 0.2 0.2 0.2 0.2 0.2 0.2 0.2 0.2 0.2 0.2 0.2 0.2 0.2 0.2 0.2 0.2 0.2 0.2 0.2 0.2 0.2 0.2 0.2 0.2 0.2 0.2 0.2 0.2 0.2 0.2 0.2 0.2 0.2 0.2 0.2 0.2 0.2 0.2 0.2 0.2 0.2 0.2 0.2 0.2 0.2 0.2 0.2 0.2 0.2 0.2 0.2 0.2 0.2 0.2 0.2 0.2 0.2 0.2 0.2 0.2 0.2 0.2 0.2 0.2 0.2 0.2 0.2 0.2 0.2 0.2 0.2 0.2 0.2 0.2 0.2 0.2 0.2 0.2 0.2 0.2 0.2 0.2 0.2 0.2 0.2 0.2 0.2 0.2 0.2 0.2 0.2 0.2 0.2 0.2 0.2 0.025 0.025 0.9 0.025 0.025 0.2 0.2 0.2 0.2 0.2 0.2 0.2 0.2 0.2 0.2 0.2 0.2 0.2 0.2 0.2 0.2 0.2 0.2 0.2 0.2 0.2 0.2 0.2 0.2 0.2 0.2 0.2 0.2 0.2 0.2 0.2 0.2 0.2 0.2 0.2 0.2 0.2 0.2 0.2 0.2 0.2 0.2 0.2 0.2 0.2 0.06666666666666665 0.7333333333333333 0.06666666666666665 0.06666666666666665 0.06666666666666665 0.2 0.2 0.2 0.2 0.2 0.06666666666666665 0.06666666666666665 0.7333333333333333 0.06666666666666665 0.06666666666666665 0.2 0.2 0.2 0.2 0.2 0.2 0.2 0.2 0.2 0.2 0.2 0.2 0.2 0.2 0.2 0.2 0.2 0.2 0.2 0.2 0.2 0.2 0.2 0.2 0.2 0.2 0.2 0.2 0.2 0.2 0.1 0.6000000000000001 0.1 0.1 0.1 0.2 0.2 0.2 0.2 0.2 0.2 0.2 0.2 0.2 0.2 0.2 0.2 0.2 0.2 0.2 0.1 0.6000000000000001 0.1 0.1 0.1 0.2 0.2 0.2 0.2 0.2 0.2 0.2 0.2 0.2 0.2 0.06666666666666665 0.06666666666666665 0.7333333333333333 0.06666666666666665 0.06666666666666665 0.2 0.2 0.2 0.2 0.2 0.2 0.2 0.2 0.2 0.2 0.2 0.2 0.2 0.2 0.2 0.2 0.2 0.2 0.2 0.2 0.2 0.2 0.2 0.2 0.2 0.2 0.2 0.2 0.2 0.2 0.2 0.2 0.2 0.2 0.2 0.2 0.2 0.2 0.2 0.2 0.2 0.2 0.2 0.2 0.2 0.2 0.2 0.2 0.2 0.2 0.2 0.2 0.2 0.2 0.2 0.8399999999999999 0.03999999999999999 0.03999999999999999 0.03999999999999999 0.03999999999999999 0.03333333333333333 0.03333333333333333 0.2 0.03333333333333333 0.7 0.8399999999999999 0.03999999999999999 0.03999999999999999 0.03999999999999999 0.03999999999999999 0.2 0.2 0.2 0.2 0.2 0.2 0.2 0.2 0.2 0.2 0.2 0.2 0.2 0.2 0.2 0.2 0.2 0.2 0.2 0.2 0.2 0.2 0.2 0.2 0.2 0.2 0.2 0.2 0.2 0.2 0.2 0.2 0.2 0.2 0.2 0.2 0.2 0.2 0.2 0.2 0.2 0.2 0.2 0.2 0.2 0.2 0.2 0.2 0.2 0.2 0.2 0.2 0.2 0.2 0.2 0.2 0.2 0.2 0.2 0.2 0.2 0.2 0.2 0.2 0.2 0.2 0.2 0.2 0.2 0.2 0.2 0.2 0.2 0.2 0.2 0.2 0.2 0.2 0.2 0.2 0.2 0.2 0.2 0.2 0.2 0.2 0.2 0.2 0.2 0.2 0.006896551724137933 0.006896551724137933 0.8344827586206898 0.1103448275862069 0.04137931034482759 0.2 0.2 0.2 0.2 0.2 0.01538461538461539 0.01538461538461539 0.9384615384615385 0.01538461538461539 0.01538461538461539 0.2 0.2 0.2 0.2 0.2 0.01538461538461539 0.01538461538461539 0.4 0.1692307692307692 0.4 0.2 0.2 0.2 0.2 0.2 0.2 0.2 0.2 0.2 0.2 0.03999999999999999 0.03999999999999999 0.03999999999999999 0.8399999999999999 0.03999999999999999 0.1 0.1 0.1 0.1 0.6 0.2 0.2 0.2 0.2 0.2 0.2 0.2 0.2 0.2 0.2 0.05 0.05 0.05 0.8 0.05 0.2 0.2 0.2 0.2 0.2 0.2 0.2 0.2 0.2 0.2 0.2 0.2 0.2 0.2 0.2 0.2 0.2 0.2 0.2 0.2 0.2 0.2 0.2 0.2 0.2 0.2 0.2 0.2 0.2 0.2 0.2 0.2 0.2 0.2 0.2 0.2 0.2 0.2 0.2 0.2 0.2 0.2 0.2 0.2 0.2 0.2 0.2 0.2 0.2 0.2 0.2 0.2 0.2 0.2 0.2 0.2 0.2 0.2 0.2 0.2 0.2 0.2 0.2 0.2 0.2 0.06666666666666667 0.06666666666666667 0.06666666666666667 0.06666666666666667 0.7333333333333334 0.2 0.2 0.2 0.2 0.2 0.2 0.2 0.2 0.2 0.2 0.06666666666666667 0.06666666666666667 0.4 0.06666666666666667 0.4 0.2 0.2 0.2 0.2 0.2 0.2 0.2 0.2 0.2 0.2 0.2 0.2 0.2 0.2 0.2 0.008695652173913045 0.008695652173913045 0.7478260869565218 0.008695652173913045 0.2260869565217392 0.2 0.2 0.2 0.2 0.2 0.03333333333333333 0.03333333333333333 0.8666666666666665 0.03333333333333333 0.03333333333333333 0.2 0.2 0.2 0.2 0.2 0.2 0.2 0.2 0.2 0.2 0.2 0.2 0.2 0.2 0.2 0.2 0.2 0.2 0.2 0.2 0.2 0.2 0.2 0.2 0.2 0.2 0.2 0.2 0.2 0.2 0.2 0.2 0.2 0.2 0.2 0.2 0.2 0.2 0.2 0.2 0.2 0.2 0.2 0.2 0.2 0.2 0.2 0.2 0.2 0.2 0.2 0.2 0.2 0.2 0.2 0.2 0.2 0.2 0.2 0.2 0.1 0.6000000000000001 0.1 0.1 0.1 0.2 0.2 0.2 0.2 0.2 0.1 0.6000000000000001 0.1 0.1 0.1 0.2 0.2 0.2 0.2 0.2 0.1 0.6000000000000001 0.1 0.1 0.1 0.2 0.2 0.2 0.2 0.2 0.05 0.05 0.8 0.05 0.05 0.2 0.2 0.2 0.2 0.2 0.2 0.2 0.2 0.2 0.2 0.2 0.2 0.2 0.2 0.2 0.2 0.2 0.2 0.2 0.2 0.2 0.2 0.2 0.2 0.2 0.2 0.2 0.2 0.2 0.2 0.2 0.2 0.2 0.2 0.2 0.2 0.2 0.2 0.2 0.2 0.2 0.2 0.2 0.2 0.2 0.2 0.2 0.2 0.2 0.2 0.2 0.2 0.2 0.2 0.2 0.2 0.2 0.2 0.2 0.2 0.2 0.2 0.2 0.2 0.2 0.2 0.2 0.2 0.2 0.2 0.2 0.2 0.2 0.2 0.2 0.2 0.2 0.2 0.2 0.2 0.2 0.2 0.2 0.2 0.2 0.2 0.2 0.2 0.2 0.2 0.2 0.2 0.2 0.2 0.2 0.2 0.2 0.2 0.2 0.2 0.2 0.2 0.2 0.2 0.2 0.06666666666666665 0.7333333333333333 0.06666666666666665 0.06666666666666665 0.06666666666666665 0.1 0.6000000000000001 0.1 0.1 0.1 0.2 0.2 0.2 0.2 0.2 0.2 0.2 0.2 0.2 0.2 0.2 0.2 0.2 0.2 0.2 0.2 0.2 0.2 0.2 0.2 0.2 0.2 0.2 0.2 0.2 0.2 0.2 0.2 0.2 0.2 0.1 0.1 0.6 0.1 0.1 0.2 0.2 0.2 0.2 0.2 0.2 0.2 0.2 0.2 0.2 0.2 0.2 0.2 0.2 0.2 0.01538461538461539 0.01538461538461539 0.9384615384615385 0.01538461538461539 0.01538461538461539 0.2 0.2 0.2 0.2 0.2 0.2 0.2 0.2 0.2 0.2 0.2 0.2 0.2 0.2 0.2 0.06666666666666665 0.06666666666666665 0.7333333333333333 0.06666666666666665 0.06666666666666665 0.2 0.2 0.2 0.2 0.2 0.2 0.2 0.2 0.2 0.2 0.2 0.2 0.2 0.2 0.2 0.2 0.2 0.2 0.2 0.2 0.2 0.2 0.2 0.2 0.2 0.2 0.2 0.2 0.2 0.2 0.2 0.2 0.2 0.2 0.2 0.2 0.2 0.2 0.2 0.2 0.2 0.2 0.2 0.2 0.2 0.04000000000000001 0.04000000000000001 0.04000000000000001 0.24 0.6400000000000001 0.1 0.1 0.6 0.1 0.1 0.2 0.2 0.2 0.2 0.2 0.008333333333333335 0.008333333333333335 0.7583333333333334 0.2166666666666667 0.008333333333333335 0.05 0.05 0.05 0.05 0.8 0.2 0.2 0.2 0.2 0.2 0.06666666666666665 0.06666666666666665 0.7333333333333333 0.06666666666666665 0.06666666666666665 0.1090909090909091 0.01818181818181818 0.5636363636363637 0.290909090909091 0.01818181818181818 0.05 0.05 0.05 0.05 0.8 0.2 0.2 0.2 0.2 0.2 0.7333333333333333 0.06666666666666665 0.06666666666666665 0.06666666666666665 0.06666666666666665 0.8200000000000002 0.02000000000000001 0.02000000000000001 0.12 0.02000000000000001 0.06666666666666667 0.06666666666666667 0.06666666666666667 0.06666666666666667 0.7333333333333334 0.2 0.2 0.2 0.2 0.2 0.2 0.2 0.2 0.2 0.2 0.2 0.2 0.2 0.2 0.2 0.06666666666666665 0.7333333333333333 0.06666666666666665 0.06666666666666665 0.06666666666666665 0.2 0.2 0.2 0.2 0.2 0.2 0.2 0.2 0.2 0.2 0.2 0.2 0.2 0.2 0.2 0.2 0.2 0.2 0.2 0.2 0.2 0.2 0.2 0.2 0.2 0.2 0.2 0.2 0.2 0.2 0.2 0.2 0.2 0.2 0.2 0.2 0.2 0.2 0.2 0.2 0.2 0.2 0.2 0.2 0.2 0.2 0.2 0.2 0.2 0.2 0.2 0.2 0.2 0.2 0.2 0.2 0.2 0.2 0.2 0.2 0.2 0.2 0.2 0.2 0.2 0.2 0.2 0.2 0.2 0.2 0.2 0.2 0.2 0.2 0.2 0.2 0.2 0.2 0.2 0.2 0.2 0.2 0.2 0.2 0.2 0.2 0.2 0.2 0.2 0.2 0.2 0.2 0.2 0.2 0.2 0.2 0.2 0.2 0.2 0.2 0.2 0.2 0.2 0.2 0.2 0.2 0.2 0.2 0.2 0.2 0.2 0.2 0.2 0.2 0.2 0.2 0.2 0.2 0.2 0.2 0.2 0.2 0.2 0.2 0.2 0.2 0.2 0.2 0.2 0.2 0.2 0.2 0.2 0.2 0.2 0.2 0.2 0.2 0.2 0.2 0.2 0.2 0.2 0.2 0.2 0.2 0.2 0.2 0.2 0.2 0.2 0.2 0.2 0.2 0.2 0.2 0.2 0.2 0.2 0.2 0.2 0.2 0.2 0.2 0.2 0.2 0.2 0.2 0.2 0.2 0.2 0.2 0.2 0.2 0.2 0.2 0.2 0.2 0.2 0.2 0.2 0.2 0.2 0.2 0.2 0.2 0.2 0.2 0.2 0.2 0.2 0.2 0.2 0.2 0.2 0.2 0.2 0.2 0.2 0.2 0.2 0.2 0.2 0.2 0.2 0.2 0.2 0.2 0.2 0.2 0.2 0.2 0.2 0.2 0.2 0.2 0.2 0.2 0.2 0.2 0.2 0.2 0.2 0.2 0.2 0.2 0.2 0.2 0.2 0.2 0.2 0.2 0.2 0.2 0.2 0.2 0.2 0.2 0.2 0.2 0.2 0.2 0.2 0.2 0.2 0.2 0.2 0.2 0.2 0.2 0.2 0.2 0.2 0.2 0.2 0.2 0.2 0.2 0.2 0.2 0.2 0.2 0.2 0.2 0.2 0.2 0.2 0.2 0.2 0.2 0.2 0.2 0.2 0.2 0.2 0.2 0.2 0.2 0.2 0.2 0.2 0.2 0.2 0.2 0.2 0.2 0.2 0.2 0.2 0.2 0.06666666666666665 0.7333333333333333 0.06666666666666665 0.06666666666666665 0.06666666666666665 0.2 0.2 0.2 0.2 0.2 0.2 0.2 0.2 0.2 0.2 0.2 0.2 0.2 0.2 0.2 0.2 0.2 0.2 0.2 0.2 0.2 0.2 0.2 0.2 0.2 0.2 0.2 0.2 0.2 0.2 0.2 0.2 0.2 0.2 0.2 0.2 0.2 0.2 0.2 0.2 0.2 0.2 0.2 0.2 0.2 0.2 0.2 0.2 0.2 0.2 0.2 0.2 0.2 0.2 0.2 0.2 0.2 0.2 0.2 0.2 0.2 0.2 0.2 0.2 0.2 0.2 0.2 0.2 0.2 0.2 0.2 0.2 0.2 0.2 0.2 0.2 0.2 0.2 0.2 0.2 0.2 0.2 0.2 0.2 0.2 0.2 0.2 0.2 0.2 0.2 0.2 0.2 0.2 0.2 0.2 0.2 0.2 0.2 0.2 0.2 0.2 0.2 0.2 0.2 0.2 0.2 0.2 0.2 0.2 0.2 0.2 0.2 0.2 0.2 0.2 0.2 0.2 0.2 0.2 0.2 0.2 0.2 0.2 0.2 0.2 0.1 0.1 0.1 0.1 0.6 0.2 0.2 0.2 0.2 0.2 0.02222222222222222 0.02222222222222222 0.02222222222222222 0.2444444444444445 0.6888888888888889 0.2 0.2 0.2 0.2 0.2 0.1 0.1 0.1 0.1 0.6 0.03999999999999999 0.03999999999999999 0.03999999999999999 0.8399999999999999 0.03999999999999999 0.2 0.2 0.2 0.2 0.2 0.2 0.2 0.2 0.2 0.2 0.2 0.2 0.2 0.2 0.2 0.2 0.2 0.2 0.2 0.2 0.2 0.2 0.2 0.2 0.2 0.2 0.2 0.2 0.2 0.2 0.2 0.2 0.2 0.2 0.2 0.2 0.2 0.2 0.2 0.2 0.2 0.2 0.2 0.2 0.2 0.2 0.2 0.2 0.2 0.2 0.2 0.2 0.2 0.2 0.2 0.2 0.2 0.2 0.2 0.2 0.2 0.2 0.2 0.2 0.2 0.2 0.2 0.2 0.2 0.2 0.2 0.2 0.2 0.2 0.2 0.2 0.2 0.2 0.2 0.2 0.2 0.2 0.2 0.2 0.2 0.2 0.2 0.2 0.2 0.2 0.2 0.2 0.2 0.2 0.2 0.2 0.2 0.2 0.2 0.2 0.2 0.2 0.2 0.2 0.2 0.2 0.2 0.2 0.2 0.2 0.2 0.2 0.2 0.2 0.2 0.2 0.2 0.2 0.2 0.2 0.2 0.2 0.2 0.2 0.2 0.2 0.2 0.2 0.2 0.2 0.2 0.2 0.2 0.2 0.2 0.2 0.2 0.2 0.2 0.2 0.2 0.2 0.2 0.2 0.2 0.2 0.2 0.2 0.2 0.2 0.2 0.2 0.2 0.2 0.2 0.2 0.2 0.2 0.2 0.2 0.2 0.2 0.2 0.2 0.2 0.2 0.2 0.2 0.2 0.2 0.2 0.2 0.2 0.2 0.2 0.2 0.2 0.2 0.2 0.2 0.2 0.2 0.2 0.2 0.2 0.2 0.2 0.2 0.2 0.2 0.2 0.2 0.2 0.2 0.2 0.2 0.2 0.2 0.2 0.2 0.2 0.2 0.2 0.2 0.2 0.2 0.2 0.2 0.2 0.2 0.2 0.2 0.2 0.2 0.2 0.2 0.2 0.2 0.2 0.2 0.2 0.2 0.2 0.2 0.2 0.025 0.025 0.9 0.025 0.025 0.02857142857142857 0.02857142857142857 0.8857142857142857 0.02857142857142857 0.02857142857142857 0.7333333333333333 0.06666666666666665 0.06666666666666665 0.06666666666666665 0.06666666666666665 0.2 0.2 0.2 0.2 0.2 0.2 0.2 0.2 0.2 0.2 0.2 0.2 0.2 0.2 0.2 0.2 0.2 0.2 0.2 0.2 0.2 0.2 0.2 0.2 0.2 0.2 0.2 0.2 0.2 0.2 0.2 0.2 0.2 0.2 0.2 0.2 0.2 0.2 0.2 0.2 0.2 0.2 0.2 0.2 0.2 0.2 0.2 0.2 0.2 0.2 0.2 0.2 0.2 0.2 0.2 0.2 0.2 0.2 0.2 0.2 0.2 0.2 0.2 0.2 0.2 0.2 0.2 0.2 0.2 0.2 0.2 0.2 0.2 0.2 0.2 0.2 0.2 0.2 0.2 0.2 0.2 0.2 0.2 0.2 0.2 0.2 0.2 0.2 0.2 0.2 0.2 0.2 0.2 0.2 0.2 0.2 0.2 0.2 0.2 0.2 0.2 0.2 0.2 0.2 0.2 0.2 0.2 0.2 0.2 0.2 0.2 0.2 0.2 0.2 0.2 0.2 0.2 0.2 0.2 0.2 0.2 0.2 0.2 0.2 0.2 0.2 0.2 0.2 0.2 0.2 0.2 0.2 0.2 0.2 0.2 0.2 0.2 0.2 0.2 0.2 0.7333333333333333 0.06666666666666665 0.06666666666666665 0.06666666666666665 0.06666666666666665 0.2 0.2 0.2 0.2 0.2 0.2 0.2 0.2 0.2 0.2 0.2 0.2 0.2 0.2 0.2 0.2 0.2 0.2 0.2 0.2 0.2 0.2 0.2 0.2 0.2 0.2 0.2 0.2 0.2 0.2 0.2 0.2 0.2 0.2 0.2 0.2 0.2 0.2 0.2 0.2 0.2 0.2 0.2 0.2 0.2 0.2 0.2 0.2 0.2 0.2 0.2 0.2 0.2 0.2 0.2 0.2 0.2 0.2 0.2 0.2 0.2 0.2 0.2 0.2 0.2 0.2 0.2 0.2 0.2 0.2 0.2 0.2 0.2 0.2 0.2 0.2 0.2 0.2 0.2 0.2 0.2 0.2 0.2 0.2 0.2 0.2 0.2 0.2 0.2 0.2 0.2 0.2 0.2 0.2 0.2 0.2 0.2 0.2 0.2 0.2 0.2 0.2 0.2 0.2 0.2 0.2 0.2 0.2 0.2 0.2 0.2 0.2 0.2 0.2 0.2 0.02857142857142857 0.02857142857142857 0.02857142857142857 0.02857142857142857 0.8857142857142857 0.2 0.2 0.2 0.2 0.2 0.2 0.2 0.2 0.2 0.2 0.03999999999999999 0.03999999999999999 0.03999999999999999 0.8399999999999999 0.03999999999999999 0.01428571428571429 0.01428571428571429 0.01428571428571429 0.657142857142857 0.3 0.2 0.2 0.2 0.2 0.2 0.2 0.2 0.2 0.2 0.2 0.2 0.2 0.2 0.2 0.2 0.2 0.2 0.2 0.2 0.2 0.2 0.2 0.2 0.2 0.2 0.2 0.2 0.2 0.2 0.2 0.2 0.2 0.2 0.2 0.2 0.2 0.2 0.2 0.2 0.2 0.2 0.2 0.2 0.2 0.2 0.2 0.2 0.2 0.2 0.2 0.2 0.2 0.2 0.2 0.2 0.2 0.2 0.2 0.2 0.2 0.2 0.2 0.2 0.2 0.2 0.2 0.2 0.2 0.2 0.2 0.2 0.2 0.2 0.2 0.2 0.2 0.2 0.2 0.2 0.2 0.2 0.2 0.2 0.2 0.2 0.2 0.2 0.2 0.2 0.2 0.2 0.2 0.2 0.2 0.2 0.2 0.2 0.2 0.2 0.2 0.2 0.2 0.2 0.2 0.2 0.2 0.2 0.2 0.2 0.2 0.2 0.2 0.2 0.2 0.2 0.2 0.2 0.2 0.2 0.2 0.2 0.2 0.2 0.2 0.2 0.2 0.2 0.2 0.2 0.2 0.2 0.2 0.2 0.2 0.2 0.1 0.1 0.6 0.1 0.1 0.2 0.2 0.2 0.2 0.2 0.1 0.6000000000000001 0.1 0.1 0.1 0.2 0.2 0.2 0.2 0.2 0.2 0.2 0.2 0.2 0.2 0.2 0.2 0.2 0.2 0.2 0.02857142857142857 0.4571428571428571 0.4571428571428571 0.02857142857142857 0.02857142857142857 0.2 0.2 0.2 0.2 0.2 0.2 0.2 0.2 0.2 0.2 0.2 0.2 0.2 0.2 0.2 0.01538461538461539 0.7076923076923078 0.2461538461538462 0.01538461538461539 0.01538461538461539 0.2 0.2 0.2 0.2 0.2 0.2 0.2 0.2 0.2 0.2 0.2 0.2 0.2 0.2 0.2 0.02 0.42 0.52 0.02 0.02 0.2 0.2 0.2 0.2 0.2 0.2 0.2 0.2 0.2 0.2 0.2 0.2 0.2 0.2 0.2 0.06666666666666665 0.7333333333333333 0.06666666666666665 0.06666666666666665 0.06666666666666665 0.2 0.2 0.2 0.2 0.2 0.2 0.2 0.2 0.2 0.2 0.2 0.2 0.2 0.2 0.2 0.2 0.2 0.2 0.2 0.2 0.2 0.2 0.2 0.2 0.2 0.2 0.2 0.2 0.2 0.2 0.2 0.2 0.2 0.2 0.2 0.2 0.2 0.2 0.2 0.2 0.2 0.2 0.2 0.2 0.2 0.2 0.2 0.2 0.2 0.2 0.2 0.2 0.2 0.2 0.2 0.2 0.2 0.2 0.2 0.2 0.2 0.2 0.2 0.2 0.2 0.2 0.2 0.2 0.2 0.2 0.2 0.2 0.2 0.2 0.2 0.2 0.2 0.2 0.2 0.2 0.2 0.2 0.2 0.2 0.2 0.2 0.2 0.2 0.2 0.2 0.2 0.2 0.2 0.2 0.2 0.2 0.2 0.2 0.2 0.2 0.2 0.2 0.2 0.2 0.2 0.2 0.2 0.2 0.2 0.2 0.2 0.2 0.2 0.2 0.2 0.2 0.2 0.2 0.2 0.2 0.2 0.2 0.2 0.2 0.2 0.2 0.2 0.2 0.2 0.2 0.2 0.2 0.2 0.2 0.2 0.2 0.2 0.2 0.2 0.2 0.2 0.2 0.2 0.2 0.2 0.2 0.2 0.2 0.2 0.2 0.2 0.2 0.2 0.2 0.2 0.2 0.2 0.2 0.2 0.2 0.2 0.2 0.2 0.2 0.2 0.2 0.2 0.2 0.2 0.2 0.2 0.2 0.2 0.2 0.2 0.2 0.2 0.2 0.2 0.2 0.2 0.2 0.2 0.2 0.2 0.2 0.2 0.2 0.2 0.2 0.2 0.2 0.2 0.2 0.2 0.2 0.2 0.2 0.2 0.2 0.2 0.2 0.2 0.2 0.2 0.2 0.2 0.2 0.2 0.2 0.2 0.2 0.2 0.2 0.2 0.2 0.2 0.2 0.2 0.2 0.2 0.2 0.2 0.2 0.2 0.2 0.2 0.2 0.2 0.2 0.2 0.2 0.2 0.2 0.2 0.2 0.2 0.2 0.2 0.2 0.2 0.2 0.2 0.2 0.2 0.6000000000000001 0.1 0.1 0.1 0.1 0.2 0.2 0.2 0.2 0.2 0.6000000000000001 0.1 0.1 0.1 0.1 0.1 0.1 0.1 0.6 0.1 0.2 0.2 0.2 0.2 0.2 0.2 0.2 0.2 0.2 0.2 0.2 0.2 0.2 0.2 0.2 0.2 0.2 0.2 0.2 0.2 0.2 0.2 0.2 0.2 0.2 0.2 0.2 0.2 0.2 0.2 0.2 0.2 0.2 0.2 0.2 0.2 0.2 0.2 0.2 0.2 0.2 0.2 0.2 0.2 0.2 0.2 0.2 0.2 0.2 0.2 0.2 0.2 0.2 0.2 0.2 0.2 0.2 0.2 0.2 0.2 0.2 0.2 0.2 0.2 0.2 0.2 0.2 0.2 0.2 0.2 0.2 0.2 0.2 0.2 0.2 0.2 0.2 0.2 0.2 0.2 0.2 0.2 0.2 0.2 0.2 0.2 0.2 0.2 0.2 0.2 0.2 0.2 0.2 0.2 0.2 0.2 0.2 0.2 0.2 0.2 0.2 0.2 0.2 0.2 0.2 0.2 0.2 0.2 0.2 0.2 0.2 0.2 0.2 0.2 0.2 0.2 0.2 0.2 0.2 0.2 0.2 0.2 0.2 0.2 0.2 0.2 0.2 0.2 0.2 0.2 0.2 0.2 0.2 0.2 0.2 0.2 0.2 0.2 0.2 0.2 0.2 0.2 0.2 0.2 0.2 0.2 0.2 0.2 0.2 0.2 0.2 0.2 0.2 0.2 0.2 0.2 0.2 0.2 0.2 0.2 0.2 0.2 0.2 0.2 0.2 0.2 0.2 0.2 0.2 0.2 0.2 0.2 0.2 0.2 0.2 0.2 0.2 0.2 0.2 0.2 0.2 0.2 0.2 0.2 0.2 0.2 0.2 0.2 0.2 0.2 0.2 0.2 0.2 0.2 0.2 0.2 0.2 0.2 0.2 0.2 0.2 0.2 0.2 0.2 0.2 0.2 0.2 0.2 0.2 0.2 0.2 0.2 0.2 0.2 0.2 0.2 0.2 0.2 0.2 0.2 0.2 0.2 0.2 0.2 0.2 0.2 0.2 0.2 0.2 0.2 0.2 0.2 0.2 0.2 0.2 0.2 0.2 0.2 0.2 0.2 0.2 0.2 0.2 0.2 0.2 0.2 0.2 0.2 0.2 0.2 0.2 0.2 0.2 0.2 0.2 0.2 0.2 0.2 0.2 0.2 0.2 0.2 0.2 0.2 0.2 0.2 0.2 0.2 0.2 0.2 0.2 0.2 0.2 0.2 0.2 0.2 0.2 0.2 0.2 0.2 0.2 0.2 0.2 0.2 0.2 0.2 0.2 0.2 0.2 0.2 0.2 0.2 0.2 0.2 0.2 0.2 0.2 0.2 0.2 0.2 0.2 0.2 0.2 0.2 0.2 0.2 0.2 0.2 0.2 0.2 0.2 0.2 0.2 0.2 0.2 0.2 0.2 0.2 0.2 0.2 0.2 0.2 0.2 0.2 0.2 0.2 0.2 0.2 0.2 0.2 0.2 0.2 0.2 0.2 0.2 0.2 0.2 0.2 0.2 0.2 0.2 0.2 0.2 0.2 0.2 0.2 0.2 0.2 0.2 0.2 0.2 0.2 0.2 0.2 0.2 0.2 0.2 0.2 0.2 0.2 0.2 0.2 0.2 0.2 0.2 0.2 0.2 0.2 0.2 0.2 0.2 0.2 0.2 0.2 0.2 0.2 0.2 0.2 0.2 0.2 0.2 0.2 0.2 0.2 0.2 0.2 0.2 0.2 0.2 0.2 0.2 0.2 0.2 0.2 0.2 0.2 0.2 0.2 0.2 0.2 0.2 0.2 0.2 0.2 0.2 0.2 0.2 0.2 0.2 0.2 0.2 0.2 0.2 0.2 0.2 0.2 0.2 0.2 0.2 0.2 0.2 0.2 0.2 0.2 0.2 0.2 0.2 0.2 0.2 0.2 0.2 0.2 0.2 0.2 0.2 0.2 0.2 0.2 0.2 0.2 0.06666666666666665 0.06666666666666665 0.06666666666666665 0.7333333333333333 0.06666666666666665 0.2 0.2 0.2 0.2 0.2 0.2 0.2 0.2 0.2 0.2 0.2 0.2 0.2 0.2 0.2 0.2 0.2 0.2 0.2 0.2 0.2 0.2 0.2 0.2 0.2 0.2 0.2 0.2 0.2 0.2 0.2 0.2 0.2 0.2 0.2 0.2 0.2 0.2 0.2 0.2 0.2 0.2 0.2 0.2 0.2 0.2 0.2 0.2 0.2 0.2 0.06666666666666665 0.06666666666666665 0.06666666666666665 0.7333333333333333 0.06666666666666665 0.2 0.2 0.2 0.2 0.2 0.2 0.2 0.2 0.2 0.2 0.2 0.2 0.2 0.2 0.2 0.2 0.2 0.2 0.2 0.2 0.2 0.2 0.2 0.2 0.2 0.2 0.2 0.2 0.2 0.2 0.2 0.2 0.2 0.2 0.2 0.2 0.2 0.2 0.2 0.2 0.2 0.2 0.2 0.2 0.2 0.2 0.2 0.2 0.2 0.2 0.2 0.2 0.2 0.2 0.2 0.2 0.2 0.2 0.2 0.2 0.2 0.2 0.2 0.2 0.2 0.2 0.2 0.2 0.2 0.2 0.2 0.2 0.2 0.2 0.2 0.2 0.2 0.2 0.2 0.2 0.2 0.2 0.2 0.2 0.2 0.2 0.2 0.2 0.2 0.2 0.2 0.2 0.2 0.2 0.2 0.2 0.2 0.2 0.2 0.2 0.2 0.2 0.2 0.2 0.2 0.2 0.2 0.2 0.2 0.2 0.2 0.2 0.2 0.2 0.2 0.2 0.2 0.2 0.2 0.2 0.2 0.2 0.2 0.2 0.2 0.2 0.2 0.2 0.2 0.2 0.2 0.2 0.2 0.2 0.2 0.2 0.2 0.2 0.2 0.2 0.2 0.2 0.2 0.2 0.2 0.2 0.2 0.2 0.2 0.2 0.2 0.2 0.2 0.2 0.2 0.2 0.2 0.2 0.2 0.2 0.2 0.2 0.2 0.2 0.2 0.2 0.2 0.2 0.2 0.2 0.2 0.2 0.2 0.2 0.2 0.2 0.2 0.2 0.2 0.2 0.2 0.2 0.2 0.2 0.2 0.2 0.2 0.2 0.2 0.2 0.2 0.2 0.2 0.2 0.2 0.2 0.2 0.2 0.2 0.2 0.2 0.2 0.2 0.2 0.2 0.2 0.2 0.2 0.2 0.2 0.2 0.2 0.2 0.2 0.2 0.2 0.2 0.2 0.2 0.2 0.2 0.2 0.2 0.2 0.2 0.2 0.2 0.2 0.2 0.2 0.2 0.2 0.2 0.2 0.2 0.2 0.2 0.2 0.2 0.2 0.2 0.2 0.2 0.2 0.2 0.2 0.2 0.2 0.2 0.2 0.2 0.2 0.2 0.2 0.2 0.2 0.2 0.2 0.2 0.2 0.2 0.2 0.2 0.2 0.2 0.2 0.2 0.2 0.2 0.2 0.2 0.2 0.2 0.2 0.2 0.2 0.2 0.2 0.2 0.2 0.2 0.2 0.2 0.2 0.2 0.2 0.2 0.2 0.2 0.2 0.2 0.2 0.2 0.2 0.2 0.2 0.2 0.2 0.2 0.2 0.2 0.2 0.2 0.2 0.2 0.2 0.2 0.2 0.2 0.2 0.2 0.2 0.2 0.2 0.2 0.2 0.2 0.2 0.2 0.2 0.2 0.2 0.2 0.2 0.2 0.2 0.2 0.2 0.2 0.2 0.2 0.2 0.2 0.2 0.2 0.2 0.2 0.2 0.2 0.2 0.2 0.2 0.2 0.2 0.2 0.2 0.2 0.2 0.2 0.2 0.2 0.2 0.2 0.2 0.2 0.2 0.2 0.2 0.2 0.2 0.2 0.2 0.2 0.2 0.2 0.2 0.2 0.2 0.2 0.2 0.2 0.2 0.2 0.2 0.2 0.2 0.2 0.2 0.2 0.2 0.2 0.2 0.2 0.2 0.2 0.2 0.2 0.2 0.2 0.2 0.2 0.2 0.2 0.2 0.2 0.2 0.2 0.2 0.2 0.2 0.2 0.2 0.2 0.2 0.2 0.2 0.2 0.2 0.2 0.2 0.2 0.2 0.2 0.2 0.2 0.2 0.2 0.2 0.2 0.2 0.2 0.2 0.2 0.2 0.2 0.2 0.2 0.2 0.2 0.2 0.2 0.2 0.2 0.2 0.2 0.2 0.2 0.2 0.2 0.2 0.2 0.2 0.2 0.2 0.2 0.2 0.2 0.2 0.2 0.2 0.2 0.2 0.2 0.2 0.2 0.2 0.2 0.2 0.2 0.2 0.2 0.2 0.2 0.2 0.2 0.2 0.2 0.2 0.2 0.2 0.2 0.2 0.2 0.2 0.2 0.2 0.2 0.2 0.2 0.2 0.01538461538461539 0.01538461538461539 0.9384615384615385 0.01538461538461539 0.01538461538461539 0.2 0.2 0.2 0.2 0.2 0.2 0.2 0.2 0.2 0.2 0.2 0.2 0.2 0.2 0.2 0.2 0.2 0.2 0.2 0.2 0.2 0.2 0.2 0.2 0.2 0.2 0.2 0.2 0.2 0.2 0.2 0.2 0.2 0.2 0.2 0.2 0.2 0.2 0.2 0.2 0.2 0.2 0.2 0.2 0.2 0.2 0.2 0.2 0.2 0.2 0.2 0.2 0.2 0.2 0.2 0.2 0.2 0.2 0.2 0.2 0.2 0.2 0.2 0.2 0.2 0.2 0.2 0.2 0.2 0.2 0.2 0.2 0.2 0.2 0.2 0.2 0.2 0.2 0.2 0.2 0.2 0.2 0.2 0.2 0.2 0.2 0.2 0.2 0.2 0.2 0.2 0.2 0.2 0.2 0.2 0.2 0.2 0.2 0.2 0.2 0.2 0.2 0.2 0.2 0.2 0.2 0.2 0.2 0.2 0.2 0.2 0.2 0.2 0.2 0.2 0.2 0.2 0.2 0.2 0.2 0.2 0.2 0.2 0.2 0.2 0.2 0.2 0.2 0.2 0.2 0.2 0.2 0.2 0.2 0.2 0.2 0.2 0.2 0.2 0.2 0.2 0.2 0.2 0.2 0.2 0.2 0.2 0.2 0.2 0.2 0.2 0.2 0.2 0.2 0.2 0.2 0.2 0.2 0.2 0.2 0.2 0.2 0.2 0.2 0.2 0.2 0.2 0.2 0.2 0.2 0.2 0.2 0.2 0.2 0.2 0.2 0.2 0.2 0.2 0.2 0.2 0.2 0.2 0.2 0.2 0.2 0.2 0.2 0.2 0.2 0.2 0.2 0.2 0.2 0.2 0.2 0.2 0.2 0.2 0.2 0.2 0.2 0.2 0.2 0.2 0.2 0.2 0.2 0.2 0.2 0.2 0.2 0.2 0.2 0.2 0.2 0.2 0.2 0.2 0.2 0.2 0.2 0.2 0.2 0.2 0.2 0.2 0.2 0.2 0.2 0.2 0.2 0.2 0.2 0.2 0.04999999999999999 0.7999999999999998 0.04999999999999999 0.04999999999999999 0.04999999999999999 0.2 0.2 0.2 0.2 0.2 0.2 0.2 0.2 0.2 0.2 0.2 0.2 0.2 0.2 0.2 0.2 0.2 0.2 0.2 0.2 0.2 0.2 0.2 0.2 0.2 0.2 0.2 0.2 0.2 0.2 0.2 0.2 0.2 0.2 0.2 0.2 0.2 0.2 0.2 0.2 0.2 0.2 0.2 0.2 0.2 0.2 0.2 0.2 0.2 0.2 0.2 0.2 0.2 0.2 0.2 0.2 0.2 0.2 0.2 0.2 0.2 0.2 0.2 0.2 0.2 0.2 0.2 0.2 0.2 0.2 0.2 0.2 0.2 0.2 0.2 0.2 0.2 0.2 0.2 0.2 0.2 0.2 0.2 0.2 0.2 0.2 0.2 0.2 0.2 0.2 0.2 0.2 0.2 0.2 0.2 0.2 0.2 0.2 0.2 0.2 0.2 0.2 0.2 0.2 0.2 0.2 0.2 0.2 0.2 0.2 0.2 0.2 0.2 0.2 0.2 0.2 0.2 0.2 0.2 0.2 0.2 0.2 0.2 0.2 0.2 0.2 0.2 0.2 0.2 0.2 0.2 0.2 0.2 0.2 0.2 0.2 0.2 0.2 0.2 0.2 0.2 0.2 0.2 0.2 0.2 0.2 0.2 0.2 0.2 0.2 0.2 0.2 0.2 0.2 0.2 0.2 0.2 0.2 0.2 0.2 0.2 0.2 0.2 0.2 0.2 0.2 0.2 0.2 0.2 0.2 0.2 0.2 0.2 0.2 0.2 0.2 0.2 0.2 0.2 0.2 0.2 0.2 0.2 0.2 0.2 0.2 0.2 0.2 0.2 0.2 0.2 0.2 0.2 0.2 0.2 0.2 0.2 0.2 0.2 0.2 0.2 0.2 0.2 0.2 0.2 0.2 0.2 0.2 0.2 0.2 0.2 0.2 0.2 0.2 0.2 0.2 0.2 0.2 0.2 0.2 0.2 0.2 0.2 0.2 0.2 0.2 0.2 0.2 0.2 0.2 0.2 0.2 0.2 0.2 0.2 0.2 0.2 0.2 0.2 0.2 0.2 0.2 0.2 0.2 0.2 0.2 0.2 0.2 0.2 0.2 0.2 0.2 0.2 0.2 0.2 0.2 0.2 0.2 0.2 0.2 0.2 0.2 0.2 0.2 0.2 0.2 0.2 0.2 0.2 0.2 0.2 0.2 0.2 0.2 0.2 0.2 0.2 0.2 0.2 0.2 0.2 0.2 0.2 0.2 0.2 0.2 0.2 0.2 0.2 0.2 0.2 0.2 0.2 0.2 0.2 0.2 0.2 0.2 0.2 0.2 0.2 0.2 0.2 0.2 0.2 0.2 0.2 0.2 0.2 0.2 0.2 0.2 0.2 0.2 0.2 0.2 0.2 0.2 0.2 0.2 0.2 0.2 0.2 0.2 0.2 0.2 0.2 0.2 0.2 0.2 0.2 0.2 0.2 0.2 0.2 0.2 0.2 0.2 0.2 0.2 0.2 0.2 0.2 0.2 0.2 0.2 0.2 0.2 0.2 0.2 0.2 0.2 0.2 0.2 0.2 0.2 0.2 0.2 0.2 0.2 0.2 0.2 0.2 0.2 0.2 0.2 0.2 0.2 0.2 0.2 0.2 0.2 0.2 0.2 0.2 0.2 0.2 0.2 0.2 0.2 0.2 0.2 0.2 0.2 0.2 0.2 0.2 0.2 0.2 0.2 0.2 0.2 0.2 0.2 0.2 0.2 0.2 0.2 0.2 0.2 0.2 0.2 0.2 0.2 0.2 0.2 0.2 0.2 0.2 0.2 0.2 0.2 0.2 0.2 0.2 0.2 0.2 0.2 0.2 0.2 0.2 0.2 0.2 0.2 0.2 0.2 0.2 0.2 0.2 0.2 0.2 0.2 0.2 0.2 0.2 0.2 0.2 0.2 0.2 0.2 0.2 0.2 0.2 0.2 0.2 0.2 0.2 0.2 0.2 0.2 0.2 0.2 0.2 0.2 0.2 0.2 0.2 0.2 0.2 0.2 0.2 0.2 0.2 0.2 0.2 0.2 0.2 0.2 0.2 0.2 0.02857142857142857 0.8857142857142857 0.02857142857142857 0.02857142857142857 0.02857142857142857 0.2 0.2 0.2 0.2 0.2 0.2 0.2 0.2 0.2 0.2 0.2 0.2 0.2 0.2 0.2 0.2 0.2 0.2 0.2 0.2 0.02857142857142857 0.8857142857142857 0.02857142857142857 0.02857142857142857 0.02857142857142857 0.2 0.2 0.2 0.2 0.2 0.2 0.2 0.2 0.2 0.2 0.2 0.2 0.2 0.2 0.2 0.2 0.2 0.2 0.2 0.2 0.2 0.2 0.2 0.2 0.2 0.2 0.2 0.2 0.2 0.2 0.2 0.2 0.2 0.2 0.2 0.2 0.2 0.2 0.2 0.2 0.2 0.2 0.2 0.2 0.2 0.2 0.2 0.2 0.2 0.2 0.2 0.2 0.2 0.2 0.2 0.2 0.2 0.2 0.2 0.2 0.2 0.2 0.2 0.2 0.2 0.2 0.2 0.2 0.2 0.2 0.2 0.2 0.2 0.2 0.2 0.2 0.2 0.2 0.2 0.2 0.2 0.2 0.2 0.2 0.2 0.2 0.2 0.2 0.2 0.2 0.2 0.2 0.2 0.2 0.2 0.2 0.2 0.2 0.2 0.2 0.2 0.2 0.2 0.2 0.2 0.2 0.2 0.2 0.2 0.2 0.2 0.2 0.2 0.2 0.2 0.2 0.2 0.2 0.2 0.2 0.2 0.2 0.2 0.2 0.2 0.2 0.2 0.2 0.2 0.2 0.2 0.2 0.2 0.2 0.2 0.2 0.2 0.2 0.2 0.2 0.2 0.2 0.2 0.2 0.2 0.2 0.2 0.2 0.2 0.2 0.2 0.2 0.2 0.2 0.2 0.2 0.2 0.2 0.2 0.2 0.2 0.2 0.2 0.2 0.2 0.2 0.2 0.2 0.2 0.2 0.2 0.2 0.2 0.2 0.2 0.2 0.2 0.2 0.2 0.2 0.2 0.2 0.2 0.2 0.2 0.2 0.2 0.2 0.2 0.2 0.2 0.2 0.2 0.2 0.2 0.2 0.2 0.2 0.2 0.2 0.2 0.2 0.2 0.2 0.2 0.2 0.2 0.2 0.2 0.2 0.2 0.2 0.2 0.2 0.2 0.2 0.2 0.2 0.2 0.2 0.2 0.2 0.2 0.2 0.2 0.2 0.2 0.2 0.2 0.2 0.2 0.2 0.2 0.2 0.2 0.2 0.2 0.2 0.2 0.2 0.2 0.2 0.2 0.2 0.2 0.2 0.2 0.2 0.2 0.2 0.2 0.2 0.2 0.2 0.2 0.2 0.2 0.2 0.2 0.2 0.2 0.2 0.2 0.2 0.2 0.2 0.2 0.2 0.2 0.2 0.1 0.1 0.1 0.6 0.1 0.2 0.2 0.2 0.2 0.2 0.2 0.2 0.2 0.2 0.2 0.2 0.2 0.2 0.2 0.2 0.2 0.2 0.2 0.2 0.2 0.2 0.2 0.2 0.2 0.2 0.2 0.2 0.2 0.2 0.2 0.2 0.2 0.2 0.2 0.2 0.2 0.2 0.2 0.2 0.2 0.2 0.2 0.2 0.2 0.2 0.2 0.2 0.2 0.2 0.2 0.2 0.2 0.2 0.2 0.2 0.2 0.2 0.2 0.2 0.2 0.2 0.2 0.2 0.2 0.2 0.2 0.2 0.2 0.2 0.2 0.2 0.2 0.2 0.2 0.2 0.2 0.2 0.2 0.2 0.2 0.2 0.2 0.2 0.2 0.2 0.2 0.2 0.2 0.2 0.2 0.2 0.2 0.2 0.2 0.2 0.2 0.2 0.2 0.2 0.2 0.2 0.2 0.2 0.2 0.2 0.2 0.2 0.2 0.2 0.2 0.2 0.2 0.2 0.2 0.2 0.2 0.2 0.2 0.2 0.2 0.2 0.2 0.2 0.2 0.2 0.2 0.2 0.2 0.2 0.2 0.2 0.2 0.2 0.2 0.2 0.2 0.2 0.2 0.2 0.2 0.2 0.2 0.2 0.2 0.2 0.2 0.2 0.2 0.2 0.2 0.2 0.2 0.2 0.2 0.2 0.2 0.2 0.2 0.2 0.2 0.2 0.2 0.2 0.2 0.2 0.2 0.2 0.2 0.2 0.2 0.2 0.2 0.2 0.2 0.2 0.2 0.2 0.2 0.2 0.2 0.2 0.2 0.2 0.2 0.2 0.2 0.2 0.2 0.2 0.2 0.2 0.2 0.2 0.2 0.2 0.2 0.2 0.2 0.2 0.2 0.1 0.6000000000000001 0.1 0.1 0.1 0.2 0.2 0.2 0.2 0.2 0.2 0.2 0.2 0.2 0.2 0.2 0.2 0.2 0.2 0.2 0.08000000000000002 0.8800000000000001 0.01333333333333334 0.01333333333333334 0.01333333333333334 0.2 0.2 0.2 0.2 0.2 0.2 0.2 0.2 0.2 0.2 0.2 0.2 0.2 0.2 0.2 0.2 0.2 0.2 0.2 0.2 0.2 0.2 0.2 0.2 0.2 0.2 0.2 0.2 0.2 0.2 0.2 0.2 0.2 0.2 0.2 0.2 0.2 0.2 0.2 0.2 0.2 0.2 0.2 0.2 0.2 0.2 0.2 0.2 0.2 0.2 0.2 0.2 0.2 0.2 0.2 0.2 0.2 0.2 0.2 0.2 0.2 0.2 0.2 0.2 0.2 0.2 0.2 0.2 0.2 0.2 0.2 0.2 0.2 0.2 0.2 0.2 0.2 0.2 0.2 0.2 0.2 0.2 0.2 0.2 0.2 0.2 0.2 0.2 0.2 0.2 0.2 0.2 0.2 0.2 0.2 0.2 0.2 0.2 0.2 0.2 0.2 0.2 0.2 0.2 0.2 0.2 0.2 0.2 0.2 0.2 0.2 0.2 0.2 0.2 0.2 0.2 0.2 0.2 0.2 0.2 0.2 0.2 0.2 0.2 0.2 0.2 0.2 0.2 0.2 0.2 0.2 0.2 0.2 0.2 0.2 0.2 0.2 0.2 0.2 0.2 0.2 0.2 0.2 0.2 0.2 0.2 0.2 0.2 0.2 0.2 0.2 0.2 0.2 0.2 0.2 0.2 0.2 0.2 0.2 0.2 0.2 0.2 0.2 0.2 0.2 0.2 0.2 0.2 0.2 0.2 0.2 0.2 0.2 0.2 0.2 0.2 0.2 0.2 0.2 0.2 0.2 0.2 0.2 0.2 0.2 0.2 0.2 0.2 0.2 0.2 0.2 0.2 0.2 0.2 0.2 0.2 0.2 0.2 0.2 0.2 0.2 0.2 0.2 0.2 0.2 0.2 0.2 0.2 0.2 0.2 0.2 0.2 0.2 0.2 0.2 0.2 0.2 0.2 0.2 0.2 0.2 0.2 0.2 0.2 0.2 0.2 0.2 0.2 0.2 0.2 0.2 0.2 0.2 0.2 0.2 0.2 0.2 0.2 0.2 0.2 0.2 0.2 0.2 0.2 0.2 0.2 0.2 0.2 0.2 0.2 0.2 0.2 0.2 0.2 0.2 0.2 0.2 0.2 0.2 0.2 0.2 0.2 0.2 0.2 0.2 0.2 0.2 0.2 0.2 0.2 0.2 0.2 0.2 0.2 0.2 0.2 0.2 0.2 0.2 0.2 0.2 0.2 0.2 0.2 0.2 0.2 0.2 0.2 0.2 0.2 0.2 0.2 0.2 0.2 0.2 0.2 0.2 0.2 0.2 0.2 0.2 0.2 0.2 0.2 0.2 0.2 0.2 0.2 0.2 0.2 0.2 0.2 0.2 0.2 0.2 0.2 0.2 0.2 0.2 0.2 0.2 0.2 0.2 0.2 0.2 0.2 0.2 0.2 0.2 0.2 0.2 0.2 0.2 0.2 0.2 0.2 0.2 0.2 0.2 0.2 0.2 0.2 0.2 0.2 0.2 0.2 0.2 0.2 0.2 0.2 0.2 0.2 0.2 0.2 0.2 0.2 0.2 0.2 0.2 0.2 0.2 0.2 0.2 0.2 0.2 0.2 0.2 0.2 0.2 0.2 0.2 0.2 0.2 0.2 0.2 0.2 0.2 0.2 0.2 0.2 0.2 0.2 0.2 0.2 0.2 0.2 0.2 0.2 0.2 0.2 0.2 0.2 0.2 0.2 0.2 0.2 0.2 0.2 0.2 0.2 0.2 0.2 0.2 0.2 0.2 0.2 0.2 0.2 0.2 0.2 0.2 0.2 0.2 0.2 0.2 0.2 0.2 0.2 0.2 0.2 0.2 0.2 0.2 0.2 0.2 0.2 0.2 0.2 0.2 0.2 0.2 0.2 0.2 0.2 0.2 0.2 0.2 0.2 0.2 0.2 0.2 0.2 0.2 0.2 0.2 0.2 0.2 0.2 0.2 0.2 0.2 0.2 0.2 0.2 0.2 0.2 0.2 0.2 0.2 0.2 0.2 0.2 0.2 0.2 0.2 0.2 0.2 0.2 0.2 0.2 0.2 0.2 0.2 0.2 0.2 0.2 0.2 0.2 0.2 0.2 0.2 0.2 0.2 0.2 0.2 0.2 0.2 0.2 0.2 0.2 0.2 0.2 0.2 0.2 0.2 0.7999999999999998 0.04999999999999999 0.04999999999999999 0.04999999999999999 0.04999999999999999 0.2 0.2 0.2 0.2 0.2 0.2 0.2 0.2 0.2 0.2 0.2 0.2 0.2 0.2 0.2 0.2 0.2 0.2 0.2 0.2 0.2 0.2 0.2 0.2 0.2 0.2 0.2 0.2 0.2 0.2 0.2 0.2 0.2 0.2 0.2 0.2 0.2 0.2 0.2 0.2 0.2 0.2 0.2 0.2 0.2 0.2 0.2 0.2 0.2 0.2 0.2 0.2 0.2 0.2 0.2 0.2 0.2 0.2 0.2 0.2 0.2 0.2 0.2 0.2 0.2 0.2 0.2 0.2 0.2 0.2 0.2 0.2 0.2 0.2 0.2 0.2 0.2 0.2 0.2 0.2 0.2 0.2 0.2 0.2 0.2 0.2 0.2 0.2 0.2 0.2 0.2 0.2 0.2 0.2 0.2 0.2 0.2 0.2 0.2 0.2 0.1 0.6000000000000001 0.1 0.1 0.1 0.2 0.2 0.2 0.2 0.2 0.2 0.2 0.2 0.2 0.2 0.2 0.2 0.2 0.2 0.2 0.2 0.2 0.2 0.2 0.2 0.2 0.2 0.2 0.2 0.2 0.2 0.2 0.2 0.2 0.2 0.2 0.2 0.2 0.2 0.2 0.2 0.2 0.2 0.2 0.2 0.2 0.2 0.2 0.2 0.2 0.2 0.2 0.2 0.2 0.2 0.2 0.2 0.2 0.2 0.2 0.2 0.2 0.2 0.2 0.2 0.2 0.2 0.2 0.2 0.2 0.2 0.2 0.2 0.2 0.2 0.2 0.2 0.2 0.2 0.2 0.2 0.2 0.2 0.2 0.2 0.2 0.2 0.2 0.2 0.2 0.2 0.2 0.2 0.2 0.2 0.2 0.2 0.2 0.2 0.2 0.2 0.2 0.2 0.2 0.2 0.2 0.2 0.2 0.2 0.2 0.2 0.2 0.2 0.2 0.2 0.2 0.2 0.2 0.2 0.2 0.2 0.2 0.2 0.2 0.2 0.2 0.2 0.2 0.2 0.2 0.2 0.2 0.2 0.2 0.2 0.2 0.2 0.2 0.2 0.2 0.2 0.2 0.2 0.2 0.2 0.2 0.2 0.2 0.2 0.2 0.2 0.2 0.2 0.2 0.2 0.2 0.2 0.2 0.2 0.2 0.2 0.2 0.2 0.2 0.2 0.2 0.2 0.2 0.2 0.2 0.2 0.2 0.2 0.2 0.2 0.2 0.2 0.2 0.2 0.2 0.2 0.2 0.2 0.2 0.2 0.2 0.2 0.2 0.2 0.2 0.2 0.2 0.2 0.2 0.2 0.2 0.2 0.2 0.2 0.2 0.2 0.2 0.2 0.2 0.2 0.2 0.2 0.2 0.2 0.2 0.2 0.2 0.2 0.2 0.2 0.2 0.2 0.2 0.2 0.2 0.2 0.2 0.2 0.2 0.2 0.2 0.2 0.2 0.2 0.2 0.2 0.2 0.2 0.2 0.2 0.2 0.2 0.2 0.2 0.2 0.2 0.2 0.2 0.2 0.2 0.2 0.2 0.2 0.2 0.2 0.2 0.2 0.2 0.2 0.2 0.2 0.2 0.2 0.2 0.2 0.2 0.2 0.2 0.2 0.2 0.2 0.2 0.2 0.2 0.2 0.2 0.2 0.2 0.2 0.2 0.2 0.2 0.2 0.2 0.2 0.2 0.2 0.2 0.2 0.2 0.2 0.2 0.2 0.2 0.2 0.2 0.2 0.2 0.2 0.2 0.2 0.2 0.2 0.2 0.2 0.2 0.2 0.2 0.2 0.2 0.2 0.2 0.2 0.2 0.2 0.2 0.2 0.2 0.2 0.2 0.2 0.2 0.2 0.2 0.2 0.2 0.2 0.2 0.2 0.2 0.2 0.2 0.2 0.2 0.2 0.2 0.2 0.2 0.2 0.2 0.2 0.2 0.2 0.2 0.2 0.2 0.2 0.2 0.2 0.2 0.2 0.2 0.2 0.2 0.2 0.2 0.2 0.2 0.2 0.2 0.2 0.2 0.2 0.2 0.2 0.2 0.2 0.2 0.2 0.2 0.2 0.2 0.2 0.2 0.2 0.2 0.2 0.2 0.2 0.2 0.2 0.2 0.2 0.2 0.2 0.2 0.2 0.2 0.2 0.2 0.2 0.2 0.2 0.2 0.2 0.7999999999999998 0.04999999999999999 0.04999999999999999 0.04999999999999999 0.04999999999999999 0.9200000000000003 0.02000000000000001 0.02000000000000001 0.02000000000000001 0.02000000000000001 0.2 0.2 0.2 0.2 0.2 0.2 0.2 0.2 0.2 0.2 0.2 0.2 0.2 0.2 0.2 0.2 0.2 0.2 0.2 0.2 0.2 0.2 0.2 0.2 0.2 0.2 0.2 0.2 0.2 0.2 0.2 0.2 0.2 0.2 0.2 0.2 0.2 0.2 0.2 0.2 0.2 0.2 0.2 0.2 0.2 0.2 0.2 0.2 0.2 0.2 0.2 0.2 0.2 0.2 0.2 0.2 0.2 0.2 0.2 0.2 0.2 0.2 0.2 0.2 0.2 0.2 0.2 0.2 0.2 0.2 0.2 0.2 0.2 0.2 0.2 0.2 0.2 0.2 0.2 0.2 0.2 0.2 0.2 0.2 0.2 0.2 0.2 0.2 0.2 0.2 0.2 0.2 0.2 0.2 0.2 0.2 0.2 0.2 0.2 0.2 0.2 0.2 0.2 0.2 0.2 0.2 0.2 0.2 0.2 0.2 0.2 0.2 0.2 0.2 0.2 0.2 0.2 0.2 0.2 0.2 0.2 0.2 0.2 0.2 0.2 0.2 0.2 0.2 0.2 0.2 0.2 0.2 0.2 0.2 0.2 0.2 0.2 0.2 0.2 0.2 0.2 0.2 0.2 0.2 0.2 0.2 0.2 0.2 0.2 0.2 0.2 0.2 0.2 0.2 0.2 0.2 0.2 0.2 0.2 0.2 0.2 0.2 0.2 0.2 0.2 0.2 0.2 0.2 0.2 0.2 0.2 0.2 0.2 0.2 0.2 0.2 0.2 0.2 0.2 0.2 0.2 0.2 0.2 0.2 0.2 0.2 0.2 0.2 0.2 0.2 0.2 0.2 0.2 0.2 0.2 0.2 0.2 0.2 0.2 0.2 0.2 0.2 0.2 0.2 0.2 0.2 0.2 0.2 0.2 0.2 0.2 0.2 0.2 0.2 0.2 0.2 0.2 0.2 0.2 0.2 0.2 0.2 0.2 0.2 0.2 0.2 0.2 0.2 0.2 0.2 0.2 0.2 0.2 0.2 0.2 0.2 0.2 0.2 0.2 0.2 0.2 0.2 0.2 0.2 0.2 0.2 0.2 0.2 0.2 0.2 0.2 0.2 0.2 0.2 0.2 0.2 0.2 0.2 0.2 0.2 0.2 0.2 0.2 0.2 0.2 0.2 0.2 0.2 0.2 0.2 0.2 0.2 0.2 0.2 0.2 0.2 0.2 0.2 0.2 0.2 0.2 0.2 0.2 0.2 0.2 0.2 0.2 0.2 0.2 0.2 0.2 0.2 0.2 0.2 0.2 0.2 0.2 0.2 0.2 0.2 0.2 0.2 0.2 0.2 0.2 0.2 0.2 0.2 0.2 0.2 0.2 0.2 0.2 0.2 0.2 0.2 0.2 0.2 0.2 0.2 0.2 0.2 0.2 0.2 0.2 0.2 0.2 0.2 0.2 0.2 0.2 0.2 0.2 0.2 0.2 0.2 0.2 0.2 0.2 0.2 0.2 0.2 0.2 0.2 0.2 0.2 0.2 0.2 0.2 0.2 0.2 0.2 0.2 0.2 0.2 0.2 0.2 0.2 0.2 0.2 0.2 0.2 0.2 0.2 0.2 0.2 0.2 0.2 0.2 0.2 0.2 0.2 0.2 0.2 0.2 0.2 0.2 0.2 0.2 0.2 0.2 0.2 0.2 0.2 0.2 0.2 0.2 0.2 0.2 0.2 0.2 0.2 0.2 0.2 0.2 0.2 0.2 0.2 0.2 0.2 0.2 0.2 0.2 0.2 0.2 0.2 0.2 0.2 0.2 0.2 0.2 0.2 0.2 0.2 0.2 0.2 0.2 0.2 0.2 0.2 0.2 0.2 0.2 0.2 0.2 0.2 0.2 0.2 0.2 0.2 0.2 0.2 0.2 0.2 0.2 0.2 0.2 0.2 0.2 0.2 0.2 0.2 0.2 0.2 0.2 0.2 0.2 0.2 0.2 0.2 0.2 0.2 0.2 0.2 0.2 0.2 0.2 0.2 0.2 0.2 0.2 0.2 0.2 0.2 0.2 0.2 0.2 0.2 0.2 0.2 0.2 0.2 0.2 0.2 0.2 0.2 0.2 0.2 0.2 0.2 0.2 0.2 0.2 0.2 0.2 0.2 0.2 0.2 0.2 0.2 0.2 0.2 0.2 0.2 0.2 0.2 0.2 0.2 0.2 0.2 0.2 0.2 0.2 0.2 0.2 0.2 0.2 0.2 0.2 0.2 0.2 0.2 0.2 0.2 0.2 0.2 0.2 0.2 0.2 0.2 0.2 0.2 0.2 0.2 0.2 0.2 0.2 0.2 0.2 0.2 0.2 0.2 0.2 0.2 0.2 0.2 0.2 0.2 0.2 0.2 0.2 0.2 0.2 0.2 0.2 0.2 0.2 0.2 0.2 0.2 0.2 0.2 0.2 0.2 0.2 0.2 0.2 0.2 0.2 0.2 0.2 0.2 0.2 0.2 0.2 0.2 0.2 0.2 0.2 0.2 0.2 0.2 0.2 0.2 0.2 0.2 0.2 0.2 0.2 0.2 0.2 0.2 0.2 0.2 0.2 0.2 0.2 0.2 0.2 0.2 0.2 0.2 0.2 0.2 0.2 0.2 0.2 0.2 0.2 0.2 0.2 0.2 0.2 0.2 0.2 0.2 0.2 0.2 0.2 0.2 0.2 0.2 0.2 0.2 0.2 0.2 0.2 0.2 0.2 0.2 0.2 0.2 0.2 0.2 0.2 0.2 0.2 0.2 0.2 0.2 0.2 0.2 0.2 0.2 0.2 0.2 0.2 0.2 0.2 0.2 0.2 0.2 0.2 0.2 0.2 0.2 0.2 0.2 0.2 0.2 0.2 0.2 0.2 0.2 0.2 0.2 0.2 0.2 0.2 0.2 0.2 0.2 0.2 0.2 0.2 0.2 0.2 0.2 0.2 0.2 0.2 0.2 0.2 0.2 0.2 0.2 0.2 0.2 0.2 0.2 0.2 0.2 0.2 0.2 0.2 0.2 0.2 0.2 0.2 0.2 0.2 0.2 0.2 0.2 0.2 0.2 0.2 0.2 0.2 0.2 0.2 0.2 0.2 0.2 0.2 0.2 0.2 0.2 0.2 0.2 0.2 0.2 0.2 0.2 0.2 0.2 0.2 0.2 0.2 0.2 0.2 0.2 0.2 0.2 0.2 0.2 0.2 0.2 0.2 0.2 0.2 0.2 0.2 0.2 0.2 0.2 0.2 0.2 0.2 0.2 0.2 0.2 0.2 0.2 0.2 0.2 0.2 0.2 0.2 0.2 0.2 0.2 0.2 0.2 0.2 0.2 0.2 0.2 0.2 0.2 0.2 0.2 0.2 0.2 0.2 0.2 0.2 0.2 0.2 0.2 0.2 0.2 0.2 0.2 0.2 0.2 0.2 0.2 0.2 0.2 0.2 0.2 0.2 0.2 0.2 0.2 0.2 0.2 0.2 0.2 0.2 0.2 0.2 0.2 0.2 0.2 0.2 0.2 0.2 0.2 0.2 0.2 0.2 0.2 0.2 0.2 0.2 0.2 0.2 0.2 0.2 0.2 0.2 0.2 0.2 0.2 0.2 0.2 0.2 0.2 0.2 0.2 0.2 0.2 0.2 0.2 0.2 0.2 0.2 0.2 0.2 0.2 0.2 0.2 0.2 0.2 0.2 0.2 0.2 0.2 0.2 0.2 0.2 0.2 0.2 0.2 0.2 0.2 0.2 0.2 0.2 0.2 0.2 0.2 0.2 0.2 0.2 0.2 0.2 0.2 0.2 0.2 0.2 0.2 0.2 0.2 0.2 0.2 0.2 0.2 0.2 0.2 0.2 0.2 0.2 0.2 0.2 0.2 0.2 0.2 0.2 0.2 0.2 0.2 0.2 0.2 0.2 0.2 0.2 0.2 0.2 0.2 0.2 0.2 0.2 0.2 0.2 0.2 0.2 0.2 0.2 0.2 0.2 0.2 0.2 0.2 0.2 0.2 0.2 0.2 0.2 0.2 0.2 0.2 0.2 0.2 0.2 0.2 0.2 0.2 0.2 0.2 0.2 0.2 0.2 0.2 0.2 0.2 0.2 0.2 0.2 0.2 0.2 0.2 0.2 0.2 0.2 0.2 0.2 0.2 0.2 0.2 0.2 0.2 0.2 0.2 0.2 0.2 0.2 0.2 0.2 0.2 0.2 0.2 0.2 0.2 0.2 0.2 0.2 0.2 0.2 0.2 0.2 0.2 0.2 0.2 0.2 0.2 0.2 0.2 0.2 0.2 0.2 0.2 0.2 0.2 0.2 0.2 0.2 0.2 0.2 0.2 0.2 0.2 0.2 0.2 0.2 0.2 0.2 0.2 0.2 0.2 0.2 0.2 0.2 0.2 0.2 0.2 0.2 0.2 0.2 0.2 0.2 0.2 0.2 0.2 0.2 0.2 0.2 0.2 0.2 0.2 0.2 0.2 0.2 0.2 0.2 0.2 0.2 0.2 0.2 0.2 0.2 0.2 0.2 0.2 0.2 0.2 0.2 0.2 0.2 0.2 0.2 0.2 0.2 0.2 0.2 0.2 0.2 0.2 0.2 0.2 0.2 0.2 0.2 0.2 0.2 0.2 0.2 0.2 0.2 0.2 0.2 0.2 0.2 0.2 0.2 0.2 0.2 0.2 0.2 0.2 0.2 0.2 0.2 0.2 0.2 0.2 0.2 0.2 0.2 0.2 0.2 0.2 0.2 0.2 0.2 0.2 0.2 0.2 0.2 0.2 0.2 0.2 0.2 0.2 0.2 0.2 0.2 0.2 0.2 0.2 0.2 0.2 0.2 0.2 0.2 0.2 0.2 0.2 0.2 0.2 0.2 0.2 0.2 0.2 0.2 0.2 0.2 0.2 0.2 0.2 0.2 0.2 0.2 0.2 0.2 0.2 0.2 0.2 0.2 0.2 0.2 0.2 0.2 0.2 0.2 0.2 0.2 0.2 0.2 0.2 0.2 0.2 0.2 0.2 0.2 0.2 0.2 0.2 0.2 0.2 0.2 0.2 0.2 0.2 0.2 0.2 0.2 0.2 0.2 0.2 0.2 0.2 0.2 0.2 0.2 0.2 0.2 0.2 0.2 0.2 0.2 0.2 0.2 0.2 0.2 0.2 0.2 0.2 0.2 0.2 0.2 0.2 0.2 0.2 0.2 0.2 0.2 0.2 0.2 0.2 0.2 0.2 0.2 0.2 0.2 0.2 0.2 0.2 0.2 0.2 0.2 0.2 0.2 0.2 0.2 0.2 0.2 0.2 0.2 0.2 0.2 0.2 0.2 0.2 0.2 0.2 0.2 0.2 0.2 0.2 0.2 0.2 0.2 0.2 0.2 0.2 0.2 0.2 0.2 0.2 0.2 0.2 0.2 0.2 0.2 0.2 0.2 0.2 0.2 0.2 0.2 0.2 0.2 0.2 0.2 0.2 0.2 0.2 0.2 0.2 0.2 0.2 0.2 0.2 0.2 0.2 0.2 0.2 0.2 0.2 0.2 0.2 0.2 0.2 0.2 0.2 0.2 0.2 0.2 0.2 0.2 0.2 0.2 0.2 0.2 0.2 0.2 0.2 0.2 0.2 0.2 0.2 0.2 0.2 0.2 0.2 0.2 0.2 0.2 0.2 0.2 0.2 0.2 0.2 0.2 0.2 0.2 0.2 0.2 0.2 0.2 0.2 0.2 0.2 0.2 0.2 0.2 0.2 0.2 0.2 0.2 0.2 0.2 0.2 0.2 0.2 0.2 0.2 0.2 0.2 0.2 0.2 0.2 0.2 0.2 0.2 0.2 0.2 0.2 0.2 0.2 0.2 0.2 0.2 0.2 0.2 0.2 0.2 0.2 0.2 0.2 0.2 0.2 0.2 0.2 0.2 0.2 0.2 0.2 0.2 0.2 0.2 0.2 0.2 0.2 0.2 0.2 0.2 0.2 0.2 0.2 0.2 0.2 0.2 0.2 0.2 0.2 0.2 0.2 0.2 0.2 0.2 0.2 0.2 0.2 0.2 0.2 0.2 0.2 0.2 0.2 0.2 0.2 0.2 0.2 0.2 0.2 0.2 0.2 0.2 0.2 0.2 0.2 0.2 0.2 0.2 0.2 0.2 0.2 0.2 0.2 0.2 0.2 0.2 0.2 0.2 0.2 0.2 0.2 0.2 0.2 0.2 0.2 0.2 0.2 0.2 0.2 0.2 0.2 0.2 0.2 0.2 0.2 0.2 0.2 0.2 0.2 0.2 0.2 0.2 0.2 0.2 0.2 0.2 0.2 0.2 0.2 0.2 0.2 0.2 0.2 0.2 0.2 0.2 0.2 0.2 0.2 0.2 0.2 0.2 0.2 0.2 0.2 0.2 0.2 0.2 0.2 0.2 0.2 0.2 0.2 0.2 0.2 0.2 0.2 0.2 0.2 0.2 0.2 0.2 0.2 0.2 0.2 0.2 0.2 0.2 0.2 0.2 0.2 0.2 0.2 0.2 0.2 0.2 0.2 0.2 0.2 0.2 0.2 0.2 0.2 0.2 0.2 0.2 0.2 0.2 0.2 0.2 0.2 0.2 0.2 0.2 0.2 0.2 0.2 0.2 0.2 0.2 0.2 0.2 0.2 0.2 0.2 0.2 0.2 0.2 0.2 0.2 0.2 0.2 0.2 0.2 0.2 0.2 0.2 0.2 0.2 0.2 0.2 0.2 0.2 0.2 0.2 0.2 0.2 0.2 0.2 0.2 0.2 0.2 0.2 0.2 0.2 0.2 0.2 0.2 0.2 0.2 0.2 0.2 0.2 0.2 0.2 0.2 0.2 0.2 0.2 0.2 0.2 0.2 0.2 0.2 0.2 0.2 0.2 0.2 0.2 0.2 0.2 0.2 0.2 0.2 0.2 0.2 0.2 0.2 0.2 0.2 0.2 0.2 0.2 0.2 0.2 0.2 0.2 0.2 0.2 0.2 0.2 0.2 0.2 0.2 0.2 0.2 0.2 0.2 0.2 0.2 0.2 0.2 0.2 0.2 0.2 0.2 0.2 0.2 0.2 0.2 0.2 0.2 0.2 0.2 0.2 0.2 0.2 0.2 0.2 0.2 0.2 0.2 0.2 0.2 0.2 0.2 0.2 0.2 0.2 0.2 0.2 0.2 0.2 0.2 0.2 0.2 0.2 0.2 0.2 0.2 0.2 0.2 0.2 0.2 0.2 0.2 0.2 0.2 0.2 0.2 0.2 0.2 0.2 0.2 0.2 0.2 0.2 0.2 0.2 0.2 0.2 0.2 0.2 0.2 0.2 0.2 0.2 0.2 0.2 0.2 0.2 0.2 0.2 0.2 0.2 0.2 0.2 0.2 0.2 0.2 0.2 0.2 0.2 0.2 0.2 0.2 0.2 0.2 0.2 0.2 0.2 0.2 0.2 0.2 0.2 0.2 0.2 0.2 0.2 0.2 0.2 0.2 0.2 0.2 0.2 0.2 0.2 0.2 0.2 0.2 0.2 0.2 0.2 0.2 0.2 0.2 0.2 0.2 0.2 0.2 0.2 0.2 0.2 0.2 0.2 0.2 0.2 0.2 0.2 0.2 0.2 0.2 0.2 0.2 0.2 0.2 0.2 0.2 0.2 0.2 0.2 0.2 0.2 0.2 0.2 0.2 0.2 0.2 0.2 0.2 0.2 0.2 0.2 0.2 0.2 0.2 0.2 0.2 0.2 0.2 0.2 0.2 0.2 0.2 0.2 0.2 0.2 0.2 0.2 0.2 0.2 0.2 0.2 0.2 0.2 0.2 0.2 0.2 0.2 0.2 0.2 0.2 0.2 0.2 0.2 0.2 0.2 0.2 0.2 0.2 0.2 0.2 0.2 0.2 0.2 0.2 0.2 0.2 0.2 0.2 0.2 0.2 0.2 0.2 0.2 0.2 0.2 0.2 0.2 0.2 0.2 0.2 0.2 0.2 0.2 0.2 0.2 0.2 0.2 0.2 0.2 0.2 0.2 0.2 0.2 0.2 0.2 0.2 0.2 0.2 0.2 0.2 0.2 0.2 0.2 0.2 0.2 0.2 0.2 0.2 0.2 0.2 0.2 0.2 0.2 0.2 0.2 0.2 0.2 0.2 0.2 0.2 0.2 0.2 0.2 0.2 0.2 0.2 0.2 0.2 0.2 0.2 0.2 0.2 0.2 0.2 0.2 0.2 0.2 0.2 0.2 0.2 0.2 0.2 0.2 0.2 0.2 0.2 0.2 0.2 0.2 0.2 0.2 0.2 0.2 0.2 0.2 0.2 0.2 0.2 0.2 0.2 0.2 0.2 0.2 0.2 0.2 0.2 0.2 0.2 0.2 0.2 0.2 0.2 0.2 0.2 0.2 0.2 0.2 0.2 0.2 0.2 0.2 0.2 0.2 0.2 0.2 0.2 0.2 0.2 0.2 0.2 0.2 0.2 0.2 0.2 0.2 0.2 0.2 0.2 0.2 0.2 0.2 0.2 0.2 0.2 0.2 0.2 0.2 0.2 0.2 0.2 0.2 0.2 0.2 0.2 0.2 0.2 0.2 0.2 0.2 0.2 0.2 0.2 0.2 0.2 0.2 0.2 0.2 0.2 0.2 0.2 0.2 0.2 0.2 0.2 0.2 0.2 0.2 0.2 0.2 0.2 0.2 0.2 0.2 0.2 0.2 0.2 0.2 0.2 0.2 0.2 0.2 0.2 0.2 0.2 0.2 0.2 0.2 0.2 0.2 0.2 0.2 0.2 0.2 0.2 0.2 0.2 0.2 0.2 0.2 0.2 0.2 0.2 0.2 0.2 0.2 0.2 0.2 0.2 0.2 0.2 0.2 0.2 0.2 0.2 0.2 0.2 0.2 0.2 0.2 0.2 0.2 0.2 0.2 0.2 0.2 0.2 0.2 0.2 0.2 0.2 0.2 0.2 0.2 0.2 0.2 0.2 0.2 0.2 0.2 0.2 0.2 0.2 0.2 0.2 0.2 0.2 0.2 0.2 0.2 0.2 0.2 0.2 0.2 0.2 0.2 0.2 0.2 0.2 0.2 0.2 0.2 0.2 0.2 0.2 0.2 0.2 0.2 0.2 0.2 0.2 0.2 0.2 0.2 0.2 0.2 0.2 0.2 0.2 0.2 0.2 0.2 0.2 0.2 0.2 0.2 0.2 0.2 0.2 0.2 0.2 0.2 0.2 0.2 0.2 0.2 0.2 0.2 0.2 0.2 0.2 0.2 0.2 0.2 0.2 0.2 0.2 0.2 0.2 0.2 0.2 0.2 0.2 0.2 0.2 0.2 0.2 0.2 0.2 0.2 0.2 0.2 0.2 0.2 0.2 0.2 0.2 0.2 0.2 0.2 0.2 0.2 0.2 0.2 0.2 0.2 0.2 0.2 0.2 0.2 0.2 0.2 0.2 0.2 0.2 0.2 0.2 0.2 0.2 0.2 0.2 0.2 0.2 0.2 0.2 0.2 0.2 0.2 0.2 0.2 0.2 0.2 0.2 0.2 0.2 0.2 0.2 0.2 0.2 0.2 0.2 0.2 0.2 0.2 0.2 0.2 0.2 0.2 0.2 0.2 0.2 0.2 0.2 0.2 0.2 0.2 0.2 0.2 0.2 0.2 0.2 0.2 0.2 0.2 0.2 0.2 0.2 0.2 0.2 0.2 0.2 0.2 0.2 0.2 0.2 0.2 0.2 0.2 0.2 0.2 0.2 0.2 0.2 0.2 0.2 0.2 0.2 0.2 0.2 0.2 0.2 0.2 0.2 0.2 0.2 0.2 0.2 0.2 0.2 0.2 0.2 0.2 0.2 0.2 0.2 0.2 0.2 0.2 0.2 0.2 0.2 0.2 0.2 0.2 0.2 0.2 0.2 0.2 0.2 0.2 0.2 0.2 0.2 0.2 0.2 0.2 0.2 0.2 0.2 0.2 0.2 0.2 0.2 0.2 0.2 0.2 0.2 0.2 0.2 0.2 0.2 0.2 0.2 0.2 0.2 0.2 0.2 0.2 0.2 0.2 0.2 0.2 0.2 0.2 0.2 0.2 0.2 0.2 0.2 0.2 0.2 0.2 0.2 0.2 0.2 0.2 0.2 0.2 0.2 0.2 0.2 0.2 0.2 0.2 0.2 0.2 0.2 0.2 0.2 0.2 0.2 0.2 0.2 0.2 0.2 0.2 0.2 0.2 0.2 0.2 0.2 0.2 0.2 0.2 0.2 0.2 0.2 0.2 0.2 0.2 0.2 0.2 0.2 0.2 0.2 0.2 0.2 0.2 0.2 0.2 0.2 0.2 0.2 0.2 0.2 0.2 0.2 0.2 0.2 0.2 0.2 0.2 0.2 0.2 0.2 0.2 0.2 0.2 0.2 0.2 0.2 0.2 0.2 0.2 0.2 0.2 0.2 0.2 0.2 0.2 0.2 0.2 0.2 0.2 0.2 0.2 0.2 0.2 0.2 0.2 0.2 0.2 0.2 0.2 0.2 0.2 0.2 0.2 0.2 0.2 0.2 0.2 0.2 0.2 0.2 0.2 0.2 0.2 0.2 0.2 0.2 0.2 0.2 0.2 0.2 0.2 0.2 0.2 0.2 0.2 0.2 0.2 0.2 0.2 0.2 0.2 0.2 0.2 0.2 0.2 0.2 0.2 0.2 0.2 0.2 0.2 0.2 0.2 0.2 0.2 0.2 0.2 0.2 0.2 0.2 0.2 0.2 0.2 0.2 0.2 0.2 0.2 0.2 0.2 0.2 0.2 0.2 0.2 0.2 0.2 0.2 0.2 0.2 0.2 0.2 0.2 0.2 0.2 0.2 0.2 0.2 0.2 0.2 0.2 0.2 0.2 0.2 0.2 0.2 0.2 0.2 0.2 0.2 0.2 0.2 0.2 0.2 0.2 0.2 0.2 0.2 0.2 0.2 0.2 0.2 0.2 0.2 0.2 0.2 0.2 0.2 0.2 0.2 0.2 0.2 0.2 0.2 0.2 0.2 0.2 0.2 0.2 0.2 0.2 0.2 0.2 0.2 0.2 0.2 0.2 0.2 0.2 0.2 0.2 0.2 0.2 0.2 0.2 0.2 0.2 0.2 0.2 0.2 0.2 0.2 0.2 0.2 0.2 0.2 0.1 0.1 0.1 0.6 0.1 0.2 0.2 0.2 0.2 0.2 0.2 0.2 0.2 0.2 0.2 0.2 0.2 0.2 0.2 0.2 0.02857142857142857 0.02857142857142857 0.02857142857142857 0.8857142857142857 0.02857142857142857 0.2 0.2 0.2 0.2 0.2 0.06666666666666665 0.06666666666666665 0.7333333333333333 0.06666666666666665 0.06666666666666665 0.2 0.2 0.2 0.2 0.2 0.01428571428571429 0.01428571428571429 0.9428571428571429 0.01428571428571429 0.01428571428571429 0.2 0.2 0.2 0.2 0.2 0.290909090909091 0.01818181818181818 0.6545454545454545 0.01818181818181818 0.01818181818181818 0.8800000000000001 0.01333333333333334 0.08000000000000002 0.01333333333333334 0.01333333333333334 0.2 0.2 0.2 0.2 0.2 0.2 0.2 0.2 0.2 0.2 0.9466666666666668 0.01333333333333334 0.01333333333333334 0.01333333333333334 0.01333333333333334 0.2 0.2 0.2 0.2 0.2 0.2 0.2 0.2 0.2 0.2 0.2 0.2 0.2 0.2 0.2 0.025 0.275 0.025 0.65 0.025 0.02222222222222222 0.02222222222222222 0.02222222222222222 0.3555555555555556 0.5777777777777777 0.01111111111111111 0.01111111111111111 0.01111111111111111 0.01111111111111111 0.9555555555555555 0.007142857142857143 0.007142857142857143 0.007142857142857143 0.007142857142857143 0.9714285714285713 0.2 0.2 0.2 0.2 0.2 0.7333333333333333 0.06666666666666665 0.06666666666666665 0.06666666666666665 0.06666666666666665 0.1 0.1 0.1 0.1 0.6 0.02222222222222222 0.02222222222222222 0.02222222222222222 0.02222222222222222 0.911111111111111 0.6000000000000001 0.1 0.1 0.1 0.1 0.2 0.2 0.2 0.2 0.2 0.2 0.2 0.2 0.2 0.2 0.2 0.2 0.2 0.2 0.2 0.8666666666666665 0.03333333333333333 0.03333333333333333 0.03333333333333333 0.03333333333333333 0.2 0.2 0.2 0.2 0.2 0.2 0.2 0.2 0.2 0.2 0.2 0.2 0.2 0.2 0.2 0.2 0.2 0.2 0.2 0.2 0.2 0.2 0.2 0.2 0.2 0.05 0.05 0.8 0.05 0.05 0.2 0.2 0.2 0.2 0.2 0.2 0.2 0.2 0.2 0.2 0.2 0.2 0.2 0.2 0.2 0.2 0.2 0.2 0.2 0.2 0.2 0.2 0.2 0.2 0.2 0.2 0.2 0.2 0.2 0.2 0.2 0.2 0.2 0.2 0.2 0.2 0.2 0.2 0.2 0.2 0.2 0.2 0.2 0.2 0.2 0.02 0.02 0.02 0.02 0.9199999999999999 0.06666666666666665 0.06666666666666665 0.7333333333333333 0.06666666666666665 0.06666666666666665 0.2 0.2 0.2 0.2 0.2 0.1 0.1 0.1 0.6 0.1 0.05 0.05 0.05 0.05 0.8 0.05 0.05 0.8 0.05 0.05 0.2 0.2 0.2 0.2 0.2 0.2 0.2 0.2 0.2 0.2 0.04000000000000001 0.04000000000000001 0.04000000000000001 0.04000000000000001 0.8400000000000001 0.03333333333333333 0.03333333333333333 0.03333333333333333 0.03333333333333333 0.8666666666666667 0.2 0.2 0.2 0.2 0.2 0.2 0.2 0.2 0.2 0.2 0.2 0.2 0.2 0.2 0.2 0.2 0.2 0.2 0.2 0.2 0.1 0.1 0.1 0.1 0.6 0.01 0.01 0.01 0.3100000000000001 0.66 0.2 0.2 0.2 0.2 0.2 0.02 0.02 0.02 0.9200000000000002 0.02 0.025 0.025 0.025 0.275 0.65 0.01333333333333333 0.01333333333333333 0.01333333333333333 0.1466666666666667 0.8133333333333332 0.2 0.2 0.2 0.2 0.2 0.01538461538461539 0.01538461538461539 0.01538461538461539 0.9384615384615385 0.01538461538461539 0.1 0.1 0.1 0.6 0.1 0.008 0.008 0.008 0.528 0.448 0.008 0.008 0.208 0.328 0.448 0.025 0.025 0.15 0.025 0.775 0.1 0.1 0.1 0.6 0.1 0.1 0.1 0.1 0.6 0.1 0.2 0.2 0.2 0.2 0.2 0.2 0.2 0.2 0.2 0.2 0.2 0.2 0.2 0.2 0.2 0.2 0.2 0.2 0.2 0.2 0.2 0.2 0.2 0.2 0.2 0.2 0.2 0.2 0.2 0.2 0.1 0.1 0.1 0.6 0.1 0.01818181818181818 0.01818181818181818 0.4727272727272728 0.4727272727272728 0.01818181818181818 0.2 0.2 0.2 0.2 0.2 0.2 0.2 0.2 0.2 0.2 0.01538461538461539 0.01538461538461539 0.01538461538461539 0.9384615384615385 0.01538461538461539 0.01111111111111111 0.01111111111111111 0.6777777777777777 0.2888888888888889 0.01111111111111111 0.2 0.2 0.2 0.2 0.2 0.2 0.2 0.2 0.2 0.2 0.04000000000000001 0.04000000000000001 0.6400000000000001 0.24 0.04000000000000001 0.01666666666666667 0.01666666666666667 0.9333333333333333 0.01666666666666667 0.01666666666666667 0.2 0.2 0.2 0.2 0.2 0.02222222222222223 0.9111111111111114 0.02222222222222223 0.02222222222222223 0.02222222222222223 0.2 0.2 0.2 0.2 0.2 0.2 0.2 0.2 0.2 0.2 0.2 0.2 0.2 0.2 0.2 0.1 0.6000000000000001 0.1 0.1 0.1 0.2 0.2 0.2 0.2 0.2 0.2 0.2 0.2 0.2 0.2 0.1 0.1 0.1 0.6 0.1 0.1 0.6000000000000001 0.1 0.1 0.1 0.06666666666666665 0.06666666666666665 0.06666666666666665 0.7333333333333333 0.06666666666666665 0.2 0.2 0.2 0.2 0.2 0.2 0.2 0.2 0.2 0.2 0.2 0.2 0.2 0.2 0.2 0.2 0.2 0.2 0.2 0.2 0.2 0.2 0.2 0.2 0.2 0.2 0.2 0.2 0.2 0.2 0.2 0.2 0.2 0.2 0.2 0.2 0.2 0.2 0.2 0.2 0.2 0.2 0.2 0.2 0.2 0.2 0.2 0.2 0.2 0.2 0.4 0.06666666666666667 0.4 0.06666666666666667 0.06666666666666667 0.2 0.2 0.2 0.2 0.2 0.2 0.2 0.2 0.2 0.2 0.2 0.2 0.2 0.2 0.2 0.2 0.2 0.2 0.2 0.2 0.9 0.025 0.025 0.025 0.025 0.2 0.2 0.2 0.2 0.2 0.0125 0.0125 0.07500000000000001 0.8875000000000002 0.0125 0.05 0.05 0.3 0.05 0.55 0.0125 0.0125 0.0125 0.0125 0.95 0.2 0.2 0.2 0.2 0.2 0.05 0.05 0.8 0.05 0.05 0.35 0.6000000000000001 0.01666666666666667 0.01666666666666667 0.01666666666666667 0.2 0.2 0.2 0.2 0.2 0.2 0.2 0.2 0.2 0.2 0.4399999999999999 0.03999999999999999 0.4399999999999999 0.03999999999999999 0.03999999999999999 0.2 0.2 0.2 0.2 0.2 0.2 0.2 0.2 0.2 0.2 0.2 0.2 0.2 0.2 0.2 0.6545454545454545 0.1090909090909091 0.01818181818181818 0.01818181818181818 0.2 0.2 0.2 0.2 0.2 0.2 0.2 0.2 0.2 0.2 0.2 0.2 0.2 0.2 0.2 0.2 0.5125000000000001 0.4500000000000001 0.0125 0.0125 0.0125 0.2 0.2 0.2 0.2 0.2 0.2 0.2 0.2 0.2 0.2 0.2 0.2 0.2 0.2 0.2 0.2 0.2 0.2 0.2 0.2 0.2 0.2 0.2 0.2 0.2 0.01333333333333334 0.01333333333333334 0.01333333333333334 0.9466666666666668 0.01333333333333334 0.01538461538461539 0.01538461538461539 0.01538461538461539 0.9384615384615385 0.01538461538461539 0.2 0.2 0.2 0.2 0.2 0.1 0.1 0.1 0.1 0.6 0.01333333333333334 0.01333333333333334 0.01333333333333334 0.9466666666666668 0.01333333333333334 0.025 0.025 0.025 0.9 0.025 0.06666666666666665 0.06666666666666665 0.06666666666666665 0.7333333333333333 0.06666666666666665 0.2 0.2 0.2 0.2 0.2 0.06666666666666667 0.06666666666666667 0.06666666666666667 0.06666666666666667 0.7333333333333334 0.01052631578947368 0.01052631578947368 0.01052631578947368 0.6421052631578946 0.3263157894736842 0.06666666666666667 0.06666666666666667 0.06666666666666667 0.06666666666666667 0.7333333333333334 0.2 0.2 0.2 0.2 0.2 0.01538461538461539 0.01538461538461539 0.01538461538461539 0.01538461538461539 0.9384615384615385 0.2 0.2 0.2 0.2 0.2 0.02857142857142857 0.02857142857142857 0.02857142857142857 0.02857142857142857 0.8857142857142857 0.2 0.2 0.2 0.2 0.2 0.2 0.2 0.2 0.2 0.2 0.2 0.2 0.2 0.2 0.2 0.2 0.2 0.2 0.2 0.2 0.2 0.2 0.2 0.2 0.2 0.05 0.05 0.05 0.05 0.8 0.01052631578947368 0.01052631578947368 0.01052631578947368 0.01052631578947368 0.9578947368421051 0.2 0.2 0.2 0.2 0.2 0.2 0.2 0.2 0.2 0.2 0.2 0.2 0.2 0.2 0.2 0.06666666666666667 0.06666666666666667 0.06666666666666667 0.06666666666666667 0.7333333333333334 0.2 0.2 0.2 0.2 0.2 0.2 0.2 0.2 0.2 0.2 0.2 0.2 0.2 0.2 0.2 0.2 0.2 0.2 0.2 0.2 0.2 0.2 0.2 0.2 0.2 0.2 0.2 0.2 0.2 0.2 0.2 0.2 0.2 0.2 0.2 0.2 0.2 0.2 0.2 0.2 0.2 0.2 0.2 0.2 0.2 0.2 0.2 0.2 0.2 0.2 0.2 0.2 0.2 0.2 0.2 0.2 0.2 0.2 0.2 0.2 0.2 0.2 0.2 0.2 0.2 0.2 0.2 0.2 0.2 0.2 0.2 0.2 0.2 0.2 0.2 0.2 0.2 0.2 0.2 0.2 0.2 0.2 0.2 0.2 0.2 0.2 0.2 0.2 0.2 0.2 0.2 0.2 0.2 0.2 0.2 0.2 0.2 0.2 0.2 0.2 0.2 0.2 0.2 0.2 0.2 0.2 0.2 0.2 0.2 0.2 0.2 0.2 0.2 0.2 0.2 0.2 0.2 0.2 0.2 0.2 0.2 0.2 0.2 0.2 0.2 0.2 0.2 0.2 0.2 0.2 0.2 0.2 0.2 0.2 0.2 0.2 0.2 0.2 0.2 0.2 0.2 0.2 0.2 0.2 0.2 0.2 0.2 0.2 0.2 0.2 0.2 0.2 0.2 0.2 0.2 0.2 0.2 0.2 0.2 0.2 0.1 0.6000000000000001 0.1 0.1 0.1 0.02857142857142857 0.8857142857142857 0.02857142857142857 0.02857142857142857 0.02857142857142857 0.2 0.2 0.2 0.2 0.2 0.2 0.2 0.2 0.2 0.2 0.02857142857142857 0.02857142857142857 0.8857142857142857 0.02857142857142857 0.02857142857142857 0.02857142857142857 0.02857142857142857 0.8857142857142857 0.02857142857142857 0.02857142857142857 0.2 0.2 0.2 0.2 0.2 0.2 0.2 0.2 0.2 0.2 0.2 0.2 0.2 0.2 0.2 0.2 0.2 0.2 0.2 0.2 0.2 0.2 0.2 0.2 0.2 0.2 0.2 0.2 0.2 0.2 0.2 0.2 0.2 0.2 0.2 0.6000000000000001 0.1 0.1 0.1 0.1 0.2 0.2 0.2 0.2 0.2 0.2 0.2 0.2 0.2 0.2 0.2 0.2 0.2 0.2 0.2 0.2 0.2 0.2 0.2 0.2 0.2 0.2 0.2 0.2 0.2 0.2 0.2 0.2 0.2 0.2 0.025 0.4 0.525 0.025 0.025 0.02857142857142857 0.02857142857142857 0.02857142857142857 0.02857142857142857 0.8857142857142857 0.01666666666666667 0.01666666666666667 0.01666666666666667 0.01666666666666667 0.9333333333333332 0.01052631578947368 0.01052631578947368 0.01052631578947368 0.01052631578947368 0.9578947368421051 0.2 0.2 0.2 0.2 0.2 0.5499999999999999 0.2999999999999999 0.04999999999999999 0.04999999999999999 0.04999999999999999 0.05 0.05 0.05 0.05 0.8 0.2 0.2 0.2 0.2 0.2 0.2 0.2 0.2 0.2 0.2 0.2 0.2 0.2 0.2 0.2 0.2 0.2 0.2 0.2 0.2 0.2 0.2 0.2 0.2 0.2 0.05 0.05 0.05 0.05 0.8 0.2 0.2 0.2 0.2 0.2 0.01333333333333334 0.01333333333333334 0.9466666666666668 0.01333333333333334 0.01333333333333334 0.01818181818181818 0.01818181818181818 0.9272727272727274 0.01818181818181818 0.01818181818181818 0.025 0.4 0.025 0.025 0.525 0.2 0.2 0.2 0.2 0.2 0.1 0.1 0.1 0.1 0.6 0.2 0.2 0.2 0.2 0.2 0.2 0.2 0.2 0.2 0.2 0.2 0.2 0.2 0.2 0.2 0.1 0.1 0.1 0.1 0.6 0.009523809523809525 0.009523809523809525 0.009523809523809525 0.009523809523809525 0.9619047619047618 0.2 0.2 0.2 0.2 0.2 0.2 0.2 0.2 0.2 0.2 0.02 0.02 0.02 0.02 0.9199999999999999 0.01052631578947368 0.01052631578947368 0.01052631578947368 0.01052631578947368 0.9578947368421051 0.02857142857142857 0.02857142857142857 0.02857142857142857 0.8857142857142857 0.02857142857142857 0.2 0.2 0.2 0.2 0.2 0.04000000000000001 0.04000000000000001 0.04000000000000001 0.04000000000000001 0.8400000000000001 0.03333333333333333 0.03333333333333333 0.03333333333333333 0.03333333333333333 0.8666666666666667 0.2 0.2 0.2 0.2 0.2 0.2 0.2 0.2 0.2 0.2 0.02222222222222222 0.02222222222222222 0.02222222222222222 0.02222222222222222 0.911111111111111 0.2 0.2 0.2 0.2 0.2 0.2 0.2 0.2 0.2 0.2 0.2 0.2 0.2 0.2 0.2 0.2 0.2 0.2 0.2 0.2 0.2 0.2 0.2 0.2 0.2 0.2 0.2 0.2 0.2 0.2 0.2 0.2 0.2 0.2 0.2 0.2 0.2 0.2 0.2 0.2 0.01052631578947368 0.01052631578947368 0.01052631578947368 0.01052631578947368 0.9578947368421051 0.2 0.2 0.2 0.2 0.2 0.2 0.2 0.2 0.2 0.2 0.2 0.2 0.2 0.2 0.2 0.01 0.01 0.01 0.01 0.96 0.2 0.2 0.2 0.2 0.2 0.2 0.2 0.2 0.2 0.2 0.2 0.2 0.2 0.2 0.2 0.01111111111111111 0.01111111111111111 0.01111111111111111 0.01111111111111111 0.9555555555555555 0.2 0.2 0.2 0.2 0.2 0.2 0.2 0.2 0.2 0.2 0.2 0.2 0.2 0.2 0.2 0.2 0.2 0.2 0.2 0.2 0.2 0.2 0.2 0.2 0.2 0.2 0.2 0.2 0.2 0.2 0.2 0.2 0.2 0.2 0.2 0.2 0.2 0.2 0.2 0.2 0.2 0.2 0.2 0.2 0.2 0.2 0.2 0.2 0.2 0.2 0.2 0.2 0.2 0.2 0.2 0.2 0.2 0.2 0.2 0.2 0.2 0.2 0.2 0.2 0.2 0.2 0.2 0.2 0.2 0.2 0.2 0.2 0.2 0.2 0.2 0.2 0.2 0.2 0.2 0.2 0.2 0.2 0.2 0.2 0.2 0.2 0.2 0.2 0.2 0.2 0.2 0.2 0.2 0.2 0.2 0.2 0.2 0.2 0.2 0.2 0.2 0.2 0.2 0.2 0.2 0.2 0.2 0.2 0.2 0.2 0.2 0.2 0.2 0.2 0.2 0.2 0.2 0.2 0.2 0.2 0.2 0.2 0.2 0.2 0.2 0.2 0.2 0.2 0.2 0.2 0.2 0.2 0.2 0.2 0.2 0.2 0.2 0.2 0.2 0.2 0.2 0.2 0.2 0.2 0.2 0.2 0.2 0.2 0.2 0.2 0.2 0.2 0.2 0.2 0.2 0.2 0.2 0.2 0.2 0.2 0.2 0.2 0.2 0.2 0.2 0.2 0.2 0.2 0.2 0.2 0.2 0.2 0.2 0.2 0.2 0.2 0.2 0.2 0.2 0.2 0.02222222222222223 0.02222222222222223 0.9111111111111112 0.02222222222222223 0.02222222222222223 0.2 0.2 0.2 0.2 0.2 0.04999999999999999 0.7999999999999998 0.04999999999999999 0.04999999999999999 0.04999999999999999 0.1 0.6000000000000001 0.1 0.1 0.1 0.2 0.2 0.2 0.2 0.2 0.6000000000000001 0.1 0.1 0.1 0.1 0.2 0.2 0.2 0.2 0.2 0.2 0.2 0.2 0.2 0.2 0.2 0.2 0.2 0.2 0.2 0.2 0.2 0.2 0.2 0.2 0.2 0.2 0.2 0.2 0.2 0.2 0.2 0.2 0.2 0.2 0.2 0.2 0.2 0.2 0.2 0.05 0.3 0.05 0.05 0.55 0.2 0.2 0.2 0.2 0.2 0.01333333333333333 0.01333333333333333 0.01333333333333333 0.01333333333333333 0.9466666666666667 0.2 0.2 0.2 0.2 0.2 0.1 0.6000000000000001 0.1 0.1 0.1 0.1 0.1 0.1 0.1 0.6 0.02222222222222222 0.02222222222222222 0.02222222222222222 0.02222222222222222 0.911111111111111 0.2 0.2 0.2 0.2 0.2 0.2 0.2 0.2 0.2 0.2 0.2 0.2 0.2 0.2 0.2 0.2 0.2 0.2 0.2 0.2 0.2 0.2 0.2 0.2 0.2 0.2 0.2 0.2 0.2 0.2 0.2 0.2 0.2 0.2 0.2 0.02222222222222223 0.02222222222222223 0.9111111111111112 0.02222222222222223 0.02222222222222223 0.2 0.2 0.2 0.2 0.2 0.2 0.2 0.2 0.2 0.2 0.06666666666666667 0.06666666666666667 0.06666666666666667 0.06666666666666667 0.7333333333333334 0.2 0.2 0.2 0.2 0.2 0.2 0.2 0.2 0.2 0.2 0.2 0.2 0.2 0.2 0.2 0.2 0.2 0.2 0.2 0.2 0.025 0.025 0.025 0.025 0.9 0.2 0.2 0.2 0.2 0.2 0.2 0.2 0.2 0.2 0.2 0.2 0.2 0.2 0.2 0.2 0.02222222222222222 0.02222222222222222 0.02222222222222222 0.02222222222222222 0.911111111111111 0.2 0.2 0.2 0.2 0.2 0.02222222222222222 0.02222222222222222 0.02222222222222222 0.02222222222222222 0.911111111111111 0.1 0.1 0.1 0.6 0.1 0.2 0.2 0.2 0.2 0.2 0.2 0.2 0.2 0.2 0.2 0.2 0.2 0.2 0.2 0.2 0.2 0.2 0.2 0.2 0.2 0.2 0.2 0.2 0.2 0.2 0.2 0.2 0.2 0.2 0.2 0.2 0.2 0.2 0.2 0.2 0.2 0.2 0.2 0.2 0.2 0.2 0.2 0.2 0.2 0.2 0.2 0.2 0.2 0.2 0.2 0.2 0.2 0.2 0.2 0.2 0.2 0.2 0.2 0.2 0.2 0.2 0.2 0.2 0.2 0.2 0.2 0.2 0.2 0.2 0.2 0.2 0.2 0.2 0.2 0.2 0.2 0.2 0.2 0.2 0.2 0.2 0.2 0.2 0.2 0.2 0.2 0.2 0.2 0.2 0.2 0.2 0.2 0.2 0.2 0.2 0.2 0.2 0.2 0.2 0.2 0.2 0.2 0.2 0.2 0.2 0.2 0.2 0.2 0.2 0.2 0.2 0.2 0.2 0.2 0.2 0.2 0.2 0.2 0.2 0.2 0.2 0.2 0.2 0.2 0.2 0.2 0.2 0.2 0.2 0.2 0.2 0.2 0.2 0.2 0.2 0.2 0.2 0.2 0.2 0.2 0.2 0.2 0.2 0.2 0.2 0.2 0.2 0.2 0.2 0.2 0.2 0.2 0.2 0.2 0.2 0.2 0.2 0.2 0.2 0.2 0.2 0.2 0.2 0.2 0.2 0.2 0.2 0.2 0.2 0.2 0.2 0.2 0.2 0.2 0.2 0.2 0.2 0.2 0.2 0.2 0.2 0.2 0.2 0.2 0.2 0.2 0.2 0.2 0.2 0.2 0.2 0.2 0.2 0.2 0.2 0.2 0.2 0.2 0.2 0.2 0.2 0.2 0.2 0.2 0.2 0.2 0.2 0.2 0.2 0.2 0.2 0.2 0.2 0.2 0.2 0.2 0.2 0.2 0.2 0.2 0.2 0.2 0.2 0.2 0.2 0.2 0.2 0.2 0.2 0.2 0.2 0.2 0.2 0.2 0.2 0.2 0.2 0.2 0.2 0.2 0.2 0.2 0.2 0.2 0.2 0.2 0.2 0.2 0.2 0.2 0.1294117647058824 0.835294117647059 0.01176470588235294 0.01176470588235294 0.01176470588235294 0.2 0.2 0.2 0.2 0.2 0.2 0.2 0.2 0.2 0.2 0.1 0.1 0.6 0.1 0.1 0.7999999999999998 0.04999999999999999 0.04999999999999999 0.04999999999999999 0.04999999999999999 0.2 0.2 0.2 0.2 0.2 0.2 0.2 0.2 0.2 0.2 0.025 0.025 0.9 0.025 0.025 0.7999999999999998 0.04999999999999999 0.04999999999999999 0.04999999999999999 0.04999999999999999 0.2 0.2 0.2 0.2 0.2 0.2 0.2 0.2 0.2 0.2 0.2 0.2 0.2 0.2 0.2 0.7333333333333333 0.06666666666666665 0.06666666666666665 0.06666666666666665 0.06666666666666665 0.2 0.2 0.2 0.2 0.2 0.2 0.2 0.2 0.2 0.2 0.2 0.2 0.2 0.2 0.2 0.2 0.2 0.2 0.2 0.2 0.2 0.2 0.2 0.2 0.2 0.2 0.2 0.2 0.2 0.2 0.2 0.2 0.2 0.2 0.2 0.01333333333333333 0.4133333333333333 0.01333333333333333 0.2133333333333333 0.3466666666666667 0.2 0.2 0.2 0.2 0.2 0.02857142857142857 0.02857142857142857 0.02857142857142857 0.02857142857142857 0.8857142857142857 0.2 0.2 0.2 0.2 0.2 0.1 0.6000000000000001 0.1 0.1 0.1 0.2 0.2 0.2 0.2 0.2 0.2 0.2 0.2 0.2 0.2 0.2 0.2 0.2 0.2 0.2 0.2 0.2 0.2 0.2 0.2 0.02857142857142857 0.02857142857142857 0.02857142857142857 0.8857142857142857 0.02857142857142857 0.2 0.2 0.2 0.2 0.2 0.2 0.2 0.2 0.2 0.2 0.2 0.2 0.2 0.2 0.2 0.2 0.2 0.2 0.2 0.2 0.2 0.2 0.2 0.2 0.2 0.2 0.2 0.2 0.2 0.2 0.2 0.2 0.2 0.2 0.2 0.2 0.2 0.2 0.2 0.2 0.2 0.2 0.2 0.2 0.2 0.2 0.2 0.2 0.2 0.2 0.2 0.2 0.2 0.2 0.2 0.2 0.2 0.2 0.2 0.2 0.2 0.2 0.2 0.2 0.2 0.2 0.2 0.2 0.2 0.2 0.2 0.2 0.2 0.2 0.2 0.2 0.2 0.2 0.2 0.2 0.2 0.2 0.2 0.2 0.2 0.2 0.2 0.2 0.2 0.2 0.025 0.025 0.025 0.025 0.9 0.06666666666666665 0.06666666666666665 0.06666666666666665 0.7333333333333333 0.06666666666666665 0.2 0.2 0.2 0.2 0.2 0.2 0.2 0.2 0.2 0.2 0.2 0.2 0.2 0.2 0.2 0.2 0.2 0.2 0.2 0.2 0.2 0.2 0.2 0.2 0.2 0.2 0.2 0.2 0.2 0.2 0.2 0.2 0.2 0.2 0.2 0.2 0.2 0.2 0.2 0.2 0.2 0.2 0.2 0.2 0.2 0.2 0.2 0.2 0.2 0.2 0.2 0.2 0.2 0.2 0.2 0.2 0.2 0.2 0.2 0.2 0.2 0.2 0.2 0.2 0.2 0.2 0.2 0.2 0.2 0.2 0.2 0.2 0.2 0.2 0.2 0.2 0.2 0.2 0.2 0.2 0.2 0.2 0.2 0.2 0.2 0.2 0.2 0.2 0.2 0.2 0.2 0.2 0.2 0.2 0.2 0.2 0.2 0.2 0.2 0.2 0.2 0.2 0.2 0.2 0.2 0.2 0.2 0.2 0.2 0.2 0.2 0.2 0.2 0.2 0.2 0.2 0.2 0.2 0.2 0.2 0.2 0.2 0.2 0.2 0.2 0.2 0.2 0.2 0.2 0.2 0.2 0.2 0.2 0.2 0.2 0.2 0.2 0.2 0.2 0.2 0.2 0.2 0.2 0.2 0.2 0.2 0.2 0.2 0.2 0.2 0.2 0.2 0.2 0.2 0.2 0.2 0.2 0.2 0.2 0.2 0.2 0.2 0.2 0.2 0.2 0.2 0.2 0.2 0.2 0.2 0.2 0.2 0.2 0.2 0.2 0.2 0.2 0.2 0.2 0.2 0.2 0.2 0.2 0.2 0.2 0.2 0.2 0.2 0.2 0.2 0.2 0.2 0.2 0.2 0.2 0.05 0.05 0.8 0.05 0.05 0.2 0.2 0.2 0.2 0.2 0.2 0.2 0.2 0.2 0.2 0.2 0.2 0.2 0.2 0.2 0.2 0.2 0.2 0.2 0.2 0.2 0.2 0.2 0.2 0.2 0.2 0.2 0.2 0.2 0.2 0.2 0.2 0.2 0.2 0.2 0.2 0.2 0.2 0.2 0.2 0.2 0.2 0.2 0.2 0.2 0.02222222222222222 0.02222222222222222 0.02222222222222222 0.02222222222222222 0.911111111111111 0.01 0.01 0.3100000000000001 0.46 0.21 0.007692307692307693 0.007692307692307693 0.6615384615384615 0.2769230769230769 0.04615384615384616 0.008000000000000002 0.008000000000000002 0.9680000000000002 0.008000000000000002 0.008000000000000002 0.2 0.2 0.2 0.2 0.2 0.06666666666666665 0.06666666666666665 0.7333333333333333 0.06666666666666665 0.06666666666666665 0.02222222222222223 0.02222222222222223 0.02222222222222223 0.9111111111111112 0.02222222222222223 0.2 0.2 0.2 0.2 0.2 0.2 0.03333333333333333 0.2 0.5333333333333333 0.03333333333333333 0.2 0.2 0.2 0.2 0.2 0.01818181818181818 0.01818181818181818 0.6545454545454545 0.290909090909091 0.01818181818181818 0.2 0.2 0.2 0.2 0.2 0.4315789473684211 0.01052631578947369 0.536842105263158 0.01052631578947369 0.01052631578947369 0.2 0.2 0.2 0.2 0.2 0.2 0.2 0.2 0.2 0.2 0.2 0.2 0.2 0.2 0.2 0.9 0.025 0.025 0.025 0.025 0.2 0.2 0.2 0.2 0.2 0.2 0.2 0.2 0.2 0.2 0.01818181818181818 0.01818181818181818 0.9272727272727274 0.01818181818181818 0.01818181818181818 0.06666666666666665 0.06666666666666665 0.7333333333333333 0.06666666666666665 0.06666666666666665 0.02857142857142857 0.02857142857142857 0.02857142857142857 0.02857142857142857 0.8857142857142857 0.8080000000000002 0.008000000000000002 0.008000000000000002 0.04800000000000001 0.128 0.9692307692307692 0.007692307692307693 0.007692307692307693 0.007692307692307693 0.007692307692307693 0.2 0.2 0.2 0.2 0.2 0.03333333333333333 0.03333333333333333 0.8666666666666665 0.03333333333333333 0.03333333333333333 0.05 0.05 0.3 0.05 0.55 0.02222222222222223 0.02222222222222223 0.9111111111111112 0.02222222222222223 0.02222222222222223 0.03999999999999999 0.03999999999999999 0.8399999999999999 0.03999999999999999 0.03999999999999999 0.2 0.2 0.2 0.2 0.2 0.06666666666666667 0.06666666666666667 0.06666666666666667 0.06666666666666667 0.7333333333333334 0.01 0.01 0.9600000000000002 0.01 0.01 0.2 0.2 0.2 0.2 0.2 0.2 0.2 0.2 0.2 0.2 0.8857142857142857 0.02857142857142857 0.02857142857142857 0.02857142857142857 0.02857142857142857 0.02222222222222223 0.02222222222222223 0.9111111111111112 0.02222222222222223 0.02222222222222223 0.2 0.2 0.2 0.2 0.2 0.2 0.2 0.2 0.2 0.2 0.2 0.2 0.2 0.2 0.2 0.2 0.2 0.2 0.2 0.2 0.2 0.2 0.2 0.2 0.2 0.0125 0.0125 0.07500000000000001 0.8875000000000002 0.0125 0.2 0.2 0.2 0.2 0.2 0.01666666666666667 0.01666666666666667 0.5166666666666666 0.4333333333333333 0.01666666666666667 0.2 0.2 0.2 0.2 0.2 0.01818181818181818 0.01818181818181818 0.3818181818181818 0.2 0.3818181818181818 0.03333333333333333 0.03333333333333333 0.8666666666666665 0.03333333333333333 0.03333333333333333 0.05 0.05 0.8 0.05 0.05 0.06666666666666665 0.06666666666666665 0.06666666666666665 0.7333333333333333 0.06666666666666665 0.06666666666666665 0.06666666666666665 0.7333333333333333 0.06666666666666665 0.06666666666666665 0.2 0.2 0.2 0.2 0.2 0.2 0.2 0.2 0.2 0.2 0.05 0.05 0.8 0.05 0.05 0.1 0.1 0.6 0.1 0.1 0.2 0.2 0.2 0.2 0.2 0.2 0.2 0.2 0.2 0.2 0.2 0.2 0.2 0.2 0.2 0.05 0.05 0.05 0.05 0.8 0.06666666666666665 0.7333333333333333 0.06666666666666665 0.06666666666666665 0.06666666666666665 0.2 0.2 0.2 0.2 0.2 0.2 0.2 0.2 0.2 0.2 0.05 0.05 0.05 0.8 0.05 0.05 0.05 0.05 0.8 0.05 0.007407407407407408 0.007407407407407408 0.007407407407407408 0.9703703703703703 0.007407407407407408 0.2 0.2 0.2 0.2 0.2 0.03999999999999999 0.03999999999999999 0.03999999999999999 0.8399999999999999 0.03999999999999999 0.01538461538461539 0.01538461538461539 0.01538461538461539 0.9384615384615385 0.01538461538461539 0.05 0.05 0.05 0.8 